tree
version=v4
num_class=1
num_tree_per_iteration=1
label_index=0
max_feature_idx=27
objective=regression
feature_names=CBN_PROG_LOW_CARB_RENEW CBN_EVIDENCE_TARG_ENERGY_IMPROV EXEC_BODY_ENV_ISSUES CBN_REG_ENERGY_AUDITS CBN_PROG_REDU_CARB_CORE_OP CBN_PROG_REDU_CARB_CORE_OP_SOURCE CBN_PROG_LOW_CARB_RENEW_SOURCE CBN_EVIDENCE_TARG_ENERGY_IMPROV_SOURCE SOURCE_EXEC_BODY_ENV_ISSUES CBN_REG_ENERGY_AUDITS_SOURCE CBN_TARGET_REDUC_PCT CBN_TARGET_IMP_YEAR CBN_TARGET_BASE_YEAR TARGET_CARBON_PROGRESS_PCT target_timeline_years target_reduction_per_year target_vs_industry_avg target_achieved target_elapsed_pct progress_vs_timeline low_carbon_program_score program_implementation_score program_score_vs_industry program_age program_score_by_size target_by_emissions_intensity has_carbon_program has_ambitious_target
feature_infos=-1:1:3:0:4 -1:2:1 -1:0:4:1:2:5:6 -1:4:2:0:3:1 -1:3:0:1 -1:3177:1895:4006:2973:4008:2201:2391:2974:3754:2217:3800:3818:3824:3852:3766:3838:3855:3847:3850:3832:3807:3830:3845:3842:3851:3897:3776:3858:3909:3857:3794:3812:3816:3844:3856:3868:3755:3821:2333:3785:3861:3920:3860:3886:2018:3876:3828:2000:2067:3873:1959:1968:2034:2557:3866:3867:3869:3871:2051:2064:2076:2031:2055:2056:2058:3859:1928:2024:2041:2043:2057:2084:3862:3880:3888:1907:1949:1982:2027:2037:2048:2052:2054:3879:3881:3882:3863:3864:3875:1994:2059:3874:3893:1976:2002:2013:2016:2030:2044:2050:2060:2082:3885:3895:1938:1990:2009:2069:2083:2093:3872:3884:3892:4007:1918:2061:2063:2065:2066:2070:2074:2086:2106:3877:3894:1896:2045:2062:2080:3883:2039:2073:2077:2081:2091:2094:2095:2098:2103:2107:3887:3889:3891:3906:1927:2068:2071:2075:2088:2090:2092:2097:2113:2184:2188:3896:3898:3899:1902:2029:2078:2087:2096:3759:3878:3900:3919:1914:1915:1934:2085:2099:2102:2104:2109:2111:3757:3849:3901:3914:3917:1899:1901:1909:1912:1917:2049:2072:2105:2110:2116:2390:3174:3211:3223:3762:3902:3903:3904:3925:3926:3930:477:1897:1898:1903:1905:1906:1913:1941:1960:2089:2100:2101:2114:2553:2981:2986:3206:3758:3772:3820:3910:3913:3915:3923:3927:3928:3929:551:1910:1911:1916:1919:1925:1926:1933:1935:1946:1947:1948:1970:1971:1972:2108:2112:2982:2993:3000:3176:3761:3763:3773:3779:3890:3905:3911:4009 -1:2633:1518:3134:2417:3380:1804:3382:2418:1979:1818:3146:3189:3198:3290:3184:3196:3205:3227:3213:3217:3226:1924:3222:3224:3167:3220:3229:3234:3263:3223:3236:3157:3208:3135:3175:3302:3211:3233:3244:3278:1552:3192:3231:3247:2485:3240:3232:3251:1563:1678:1682:3246:3256:1645:1669:1694:3203:3235:3237:3239:3243:1677:1691:3245:1592:1601:1628:1652:1663:1683:1685:3242:1574:1657:1660:1709:1711:3225:3238:3254:3260:3265:1530:1584:1605:1632:1641:1667:1686:1704:1733:3250:3253:1648:1681:1690:1698:3258:1541:1656:1671:1680:1684:3248:3276:1619:1637:1675:1689:1705:1730:3252:3261:3262:3277:3381:1614:1643:1693:1706:1719:1738:2484:3141:3255:3298:3300:1697:1700:1701:1702:1707:1708:1710:1721:1723:2670:3266:3268:3271:3272:3273:3279:3281:1531:1665:1672:1692:1699:1713:1714:1725:1728:1731:1734:2106:3259:3270:3274:3280:3283:1534:1687:1695:1715:1735:1810:1978:2462:3285:3286:3288:3289:3293:3297:3308:1519:1525:1537:1559:1585:1696:1716:1726:1727:1729:1740:1743:2467:2491:3295:3296:3309:1521:1523:1528:1533:1562:1573:1676:1720:1732:1737:2443:3133:3145:3149:3152:3284:3301:3306:3312:3383:1520:1526:1529:1532:1538:1539:1546:1548:1550:1566:1570:1577:1580:1582:1589:1613:1655:1688:1712:1717:1718:1741:1742:2457:3136:3138:3139:3142:3160:3163:3185:3292:3294:3303:3304:3307 -1:1983:1089:2367:1850:1325:1565:2562:1851:2564:1348:2442:2489:1491:2368:2498:2410:2376:2393:2455:2399:2467:2411:2386:2419:2416:2403:2418:1188:2396:2440:1135:1144:2407:2437:1162:2415:2426:2431:2478:1200:2421:2433:1127:2420:2429:2444:1197:2417:1195:1214:1266:2434:2436:1098:1172:1174:1178:1180:1255:1564:2427:2430:2438:1152:1168:1182:1236:1244:2439:2447:2453:1117:1186:1205:1206:1208:2452:1157:1169:1210:1218:1220:1226:2441:2443:2445:2461:1107:1175:1194:1211:1215:1216:1333:2435:2449:2451:1213:1222:1248:2462:2563:1191:1198:1203:1207:1217:1221:1229:1241:1249:1251:1256:2448:2483:1090:1209:1225:1227:1228:1235:1243:1250:1265:2414:2458:2460:2463:2464:2468:2469:2475:1091:1204:1230:1278:2021:2456:2457:2471:2472:2477:2486:2488:2491:2496:2497:2505:269:1232:1242:1252:1264:1868:2454:2465:2470:2473:2479:2480:2504:1092:1095:1108:1109:1115:1119:1122:1129:1190:1231:1234:1238:1239:1254:1260:1261:1263:1267:1271:1272:2010:2370:2466:2476:2482:2484:2485:2492:2493:2507 -1:3919:1676:2713:3691:1970:1984:2714:3693:3449:2169:3600:3586:3450:3562:3460:3574:3468:3550:3536:3484:3475:3478:3488:2106:3490:3498:3493:3502:3522:3511:3495:3505:3521:1813:3526:3530:3513:3529:3500:3523:3509:3534:1712:1688:1743:1784:1850:3517:3528:1723:1809:1816:1827:3535:1776:1822:1853:1873:3531:1794:1806:1829:1838:1849:1854:3533:1796:1830:1831:1834:1837:1840:1884:3544:1734:1760:1841:1842:2734:2739:3541:1701:1751:1768:1844:3518:3532:3692:1792:1815:1819:1976:3542:3549:3560:3571:1790:1824:1845:1856:1863:3537:3538:3545:3548:1677:1801:1811:1836:1852:1860:1874:1875:2168:3552:3557:3565:1857:1858:1861:1869:1886:1897:2726:3497:1864:1866:1877:1881:1882:1883:1889:1901:1904:3543:3558:3563:3568:3573:1707:1859:1862:1891:3556:3561:1679:1680:1691:1848:1867:1868:1872:1878:1879:1880:1885:1887:1890:1895:3546:3555:3564:3572:395:1683:1684:1696:1700:1720:1731:1870:1896:2745:3569:3581:3599:3601:1678:1682:1685:1686:1694:1697:1705:1708:1721:1726:1833:1846:1893:1902:1903:2936:3451:3453:3463:3551:3553:3566:3567:3582:3594:3604:3608:3694:1681:1693:1699:1702:1703:1706:1716:1719:1727:1729:1741:1748:1755:1876:1894:1898:1899:1900:1973:1974:2718:2725:2735:2749:3483:3577:3578:3580:3583:3584:3592:3595:3597:3603:3609:3698 -1:2898:1151:2421:1827:2641:1828:2643:1417:1499:2500:2495:2486:1438:2468:2513:2480:2494:2432:2463:2506:2489:2491:2482:2507:2510:2525:2512:2443:2459:2473:2497:2503:2514:2576:2452:2523:1482:2499:2516:2517:2554:2565:2484:2518:2521:2531:2543:2642:1263:1282:1303:1305:1319:2505:2509:2520:2536:1266:1277:1292:1307:2519:2529:2532:2539:2547:1272:1306:1334:2522:2526:2534:2538:1234:1279:1301:1311:1312:1313:1314:1321:1327:1330:1332:1343:2422:2528:2549:1226:1248:1253:1280:1291:1304:1315:1325:2540:2542:2545:2546:2550:2551:2553:2570:1164:1167:1185:1212:1219:1256:1294:1295:1298:1300:1317:1345:1348:1349:1351:1355:1361:1430:2544:2548:2552:2564:1155:1205:1242:1285:1288:1316:1323:1344:1346:1357:1358:1366:1498:2524:2527:2535:2537:2541:1163:1275:1290:1296:1309:1333:1338:1342:1359:1365:2001:2429:2431:2569:2579:1156:1170:1171:1177:1187:1196:1217:1299:1308:1310:1324:1326:1339:1352:1360:1424:2454:2483:2556:2559:2560:2562:2566:2573:2580:1152:1157:1158:1159:1161:1168:1169:1172:1174:1178:1181:1191:1204:1210:1213:1249:1320:1328:1336:1340:1341:1347:1350:1353:1354:1356:1363:2425:2428:2433:2437:2457:2464:2557:2558:2567:2568:2572:2574:2581:2586 [0:100] [0:2030] [0:2030] [0:18583722] [-7:122] [-100:100] [0:60.79043368170084] [0:1] [0:1] [0:185837.22] [0:2] [0:4] [0:35.580663544686438] [0:8] [0:53.527361603507941] [0:1424829.9999999998] [0:1] [0:1]
tree_sizes=4240 4116 3698 3527 4058 3958 3736 3916 4179 3820 3728 3768 3280 3271 3794 3702 3835 3969 3522 3696 3808 3740 3768 3541 3492 3265 3770 3476 3767 3408 3752 3753 3845 3653 4219

Tree=0
num_leaves=31
num_cat=7
split_feature=13 5 25 8 22 16 25 16 16 23 5 4 23 8 7 25 12 11 25 13 25 25 25 10 25 25 5 24 24 10
split_gain=40990.3 13809.9 13697.5 11584 16107.3 14245.6 6529.14 6030.54 5585.83 4872.49 4244.91 5048.66 4162.85 3220.91 3186.09 3104.56 3710.99 3045.82 3022.01 2861.69 2826.42 6952.06 3393.19 2768.2 2371.02 6796.93 1994.76 4414.98 1835.59 2189.06
threshold=31.105000000000004 0 390.98214285714295 1 2.456543833381394 0.13177633412930559 1817.2437500000001 2.28101909176551 8.0485546801678645 1.5000000000000002 2 3 1.0000000180025095e-35 4 5 86.039000000000016 2019.5000000000002 2020.5000000000002 17.295833333333338 84.740000000000023 1891.7912500000002 2611.420833333334 36314.479153846165 33.84791666666667 57.925000000000004 279.93454545454551 6 10.665193560399478 15.719917687737938 66.696969696969717
decision_type=2 9 2 9 2 2 2 2 2 2 9 9 2 9 9 2 2 2 2 2 2 2 2 2 2 2 9 2 2 2
left_child=1 26 7 4 -3 -6 -7 19 10 -4 11 -5 -13 -12 24 17 -17 -16 -9 -2 -18 -22 -23 -11 -15 -26 27 -1 -20 -30
right_child=2 3 9 8 5 6 -8 18 -10 23 13 12 -14 14 15 16 20 -19 28 -21 21 22 -24 -25 25 -27 -28 -29 29 -31
leaf_value=-2.7278128906492149 -1.4724314859910566 -1.5459751575218041 -1.925623804149676 -1.2102199262364652 0.026796144374910291 -1.76301671622518 -0.59672429463446575 -2.7831673191697845 -0.84990073486206519 -1.5890717092192284 -1.7678101612314785 -0.91645724421342289 -1.5810560309685906 -1.5865769467198809 -1.6695921076548865 -1.6874084056245569 -1.6089309431918069 -1.9417388502422244 -1.7576129441861073 -1.9946430961744377 -0.60999736354218093 -1.6369574433442924 -0.91229428434409288 -1.799074509047893 -0.61790404570140023 -1.5424964720501466 -1.7928972951191777 -1.9133423357572039 -2.1982027180876238 -2.6483106772634182
leaf_weight=20 30 159 495 106 38 28 21 26 24 255 467 24 1291 995 233 814 195 184 20 209 28 84 20 408 25 97 502 99 210 31
leaf_count=20 30 159 495 106 38 28 21 26 24 255 467 24 1291 995 233 814 195 184 20 209 28 84 20 408 25 97 502 99 210 31
internal_value=-1.69237 -1.62082 -1.90303 -1.59238 -1.26411 -0.699741 -1.26318 -2.11462 -1.61088 -1.80693 -1.6147 -1.54322 -1.56893 -1.64764 -1.62646 -1.67305 -1.63026 -1.78968 -2.26911 -1.92909 -1.48799 -1.30932 -1.4976 -1.7183 -1.56223 -1.35303 -1.84143 -2.02249 -2.2179 -2.2561
internal_weight=0 5454 1684 4833 246 87 49 526 4587 1158 4563 1421 1315 3142 2675 1558 1141 417 287 239 327 132 104 663 1117 122 621 119 261 241
internal_count=7138 5454 1684 4833 246 87 49 526 4587 1158 4563 1421 1315 3142 2675 1558 1141 417 287 239 327 132 104 663 1117 122 621 119 261 241
cat_boundaries=0 126 238 361 362 485 566 688
cat_threshold=0 0 0 0 0 0 0 0 0 0 0 0 0 0 0 0 0 0 0 0 0 0 0 0 0 0 0 0 0 0 0 0 0 0 0 0 0 0 0 0 0 0 0 0 0 0 0 0 0 0 0 0 0 0 0 0 0 0 0 0 0 65664 33554432 2097156 145 8 0 0 0 512 0 0 0 0 0 0 0 0 0 0 0 0 0 0 0 0 0 0 0 0 0 0 0 0 0 0 0 0 0 0 0 0 0 0 0 0 0 0 0 0 0 0 0 0 0 0 0 4194304 2147746305 1073751056 205258772 33554456 0 0 0 64 0 0 0 0 0 0 0 0 0 0 0 0 0 0 0 0 0 0 0 0 0 0 0 0 0 0 0 0 0 0 0 0 0 0 0 0 0 0 0 0 0 0 0 0 0 0 0 0 0 0 0 0 0 0 0 0 0 0 0 0 0 0 0 0 0 0 0 0 0 0 0 0 0 0 0 0 0 0 0 0 0 0 0 0 100663296 0 0 0 0 0 0 0 0 0 0 0 0 0 0 0 0 0 0 0 0 0 0 0 0 536871040 16962 1024 0 0 0 0 0 0 0 0 0 0 0 0 0 0 0 0 0 0 0 0 0 0 0 0 0 0 0 0 0 0 0 0 0 0 0 0 0 0 0 0 0 0 0 0 0 0 0 0 0 0 0 0 0 0 0 0 0 0 0 128 256 0 0 32768 268435464 0 0 0 33554432 0 0 0 0 0 0 0 0 0 0 0 0 0 0 0 0 0 0 0 0 0 0 0 0 0 0 0 0 0 0 512 0 0 0 0 0 0 0 0 0 0 0 0 0 0 0 0 0 1024 0 17826048 268436512 768 65568 1 0 0 0 0 0 0 0 0 0 0 0 0 0 0 0 0 0 0 0 0 0 0 0 0 0 0 0 0 0 0 0 0 0 0 0 0 0 0 0 0 0 0 0 0 0 0 0 0 0 0 0 0 0 0 0 0 0 0 0 0 0 0 0 0 0 0 0 33554432 0 0 0 0 0 0 0 0 0 0 0 0 0 0 0 0 0 0 0 0 0 0 0 0 0 0 0 0 0 0 0 0 0 0 0 0 0 0 0 33554432 272629760 33574917 0 4194304 65536 0 0 0 0 0 0 0 0 0 32768 0 0 0 0 0 0 0 0 0 0 0 0 0 0 0 0 0 0 0 0 0 0 0 0 0 0 0 0 0 0 0 0 0 0 2 0 0 0 0 0 0 0 0 0 0 0 0 0 0 0 0 0 0 0 0 0 0 0 0 0 0 2147483648 0 0 0 0 0 0 0 0 0 0 0 0 0 0 0 0 0 0 4 0 0 0 0 0 0 0 0 0 0 0 0 0 0 0 0 0 0 0 0 0 0 0 0 0 0 0 0 0 0 0 0 0 0 0 0 0 0 0 0 0 0 0 0 0 0 0 0 0 0 0 0 0 0 0 0 0 0 0 0 0 0 0 0 1 0 0 0 0 0 0 0 0 0 0 0 0 0 0 0 0 0 0 0 0 0 0 0 0 0 0 0 0 0 0 0 0 0 0 0 0 0 0 0 0 0 0 0 0 0 0 0 0 0 0 0 0 0 262656 0 67371008 33554440
is_linear=0
shrinkage=1


Tree=1
num_leaves=31
num_cat=9
split_feature=13 5 8 22 22 24 23 5 4 22 24 22 23 23 0 11 10 10 6 7 12 12 3 5 24 15 24 20 24 13
split_gain=37004.3 12505.2 8865.23 13953.4 17633.3 12040.3 7309.17 4498.05 6032.14 5005.72 21324.3 4094.88 3967.23 3680.18 2756.67 3636.54 2407.89 2406.99 2310.04 3969.63 3439 2115.85 2068.86 1909.35 3393.63 1743.64 1652.55 2104.73 1603.02 1836.51
threshold=23.100000000000005 0 1 2.456543833381394 2.7300303262524985 30.092368982754561 1.5000000000000002 2 3 3.3554855843394331 11.669005941541377 2.9057809227470321 1.5000000000000002 1.0000000180025095e-35 4 2022.5000000000002 19.866071428571434 42.452747252747265 5 6 2020.5000000000002 2019.5000000000002 7 8 10.665193560399478 36.375000000000007 13.683903863918543 1.0000000180025095e-35 26.309887036362124 99.622714920000007
decision_type=2 9 9 2 2 2 2 9 9 2 2 2 2 2 9 2 2 2 9 9 2 2 9 9 2 2 2 2 2 2
left_child=1 23 3 26 -5 -6 17 8 12 18 -11 22 -4 -10 15 -15 -16 -2 -9 20 -20 -12 -8 24 -1 -18 -3 -28 29 -19
right_child=6 2 7 4 5 -7 11 9 13 10 21 -13 -14 14 16 -17 25 28 19 -21 -22 -23 -24 -25 -26 -27 27 -29 -30 -31
leaf_value=-0.67834162753893112 -0.22462255393389527 0.017176104363732108 0.261609837323872 2.0547691509127617 1.3023394366296439 -0.086735840996679595 -0.0128191613624322 -0.048732978614734107 0.73711968399584293 1.8473088029026987 -0.016526703897750739 -0.32470943441443234 0.86859654996130209 0.23039019957040119 0.12099170515730809 0.93856342373923829 -0.10511957400299499 -0.99972262030298065 0.13082106063288179 0.0067147453443340685 0.73920981319000323 0.49030464824217446 -0.20389231380477951 -0.070450279571762295 -0.17403411368511659 0.38419493809342387 0.60983499202000746 0.074760335106402634 -0.35479202692667328 -0.43579828128928233
leaf_weight=41 393 114 67 24 26 39 628 695 24 20 99 174 45 103 969 22 203 22 722 1444 24 26 175 414 179 20 34 40 310 42
leaf_count=41 393 114 67 24 26 39 628 695 24 20 99 174 45 103 969 22 203 22 722 1444 24 26 175 414 179 20 34 40 310 42
internal_value=0 0.0694417 0.0971496 0.36751 0.896546 0.468894 -0.195503 0.0796635 0.151927 0.0446244 0.331434 -0.104809 0.505488 0.123531 0.112349 0.32873 0.0861777 -0.311029 0.0303641 0.055435 0.148405 0.0888942 -0.057159 -0.137943 -0.256366 -0.0612349 0.136611 0.320605 -0.401826 -0.629647
internal_weight=0 5394 4760 277 89 65 1744 4483 1453 3030 145 977 112 1341 1317 125 1192 767 2885 2190 746 125 803 634 220 223 188 74 374 64
internal_count=7138 5394 4760 277 89 65 1744 4483 1453 3030 145 977 112 1341 1317 125 1192 767 2885 2190 746 125 803 634 220 223 188 74 374 64
cat_boundaries=0 126 239 362 363 364 447 509 510 632
cat_threshold=0 0 0 0 0 0 0 0 0 0 0 0 0 0 0 0 0 0 0 0 0 0 0 0 0 0 0 0 0 0 0 0 0 0 0 0 0 0 0 0 0 0 0 0 0 0 0 0 0 0 0 0 0 0 0 0 0 0 0 0 0 65664 33554432 4 4241 8 0 0 0 512 0 0 0 0 8388608 0 0 0 0 0 0 0 0 0 0 0 0 0 0 0 0 0 0 0 0 0 0 0 0 0 0 0 0 0 0 0 0 0 0 0 0 0 0 0 0 0 0 4194304 2147746305 1073751056 205258772 33554456 0 0 0 64 0 0 0 0 0 0 0 0 0 0 0 0 0 0 0 0 0 0 0 0 0 0 0 0 0 0 0 0 0 0 0 0 0 0 0 0 0 0 0 0 0 0 0 0 0 0 0 0 0 0 0 0 0 0 0 0 4 0 0 0 0 0 0 0 0 0 0 0 0 0 0 0 0 0 0 0 0 0 0 0 0 0 0 0 100663296 0 0 0 0 0 0 0 0 0 0 0 0 0 0 0 0 0 0 0 0 0 0 0 0 536872064 16448 1024 4 0 0 0 0 0 0 0 0 0 0 0 0 0 0 0 0 0 0 0 0 0 0 0 0 0 0 0 0 0 0 0 0 0 0 0 0 0 0 0 0 0 0 0 0 0 0 0 0 0 0 0 0 0 0 0 0 0 0 0 128 536870912 0 65536 32768 268959752 0 0 0 33554432 0 0 0 0 0 0 0 0 0 0 0 0 0 0 0 0 0 0 0 0 0 0 0 0 0 0 0 0 0 0 512 0 0 0 0 0 0 0 0 0 0 0 0 0 0 0 0 0 1024 0 16777472 268534912 768 65568 1 17 0 0 0 0 0 0 0 0 0 0 0 0 0 0 0 0 0 0 0 0 0 0 0 0 0 0 0 0 0 0 0 0 0 0 0 0 0 0 0 0 0 0 0 0 0 0 0 16384 0 0 0 0 0 0 0 0 0 0 0 0 0 0 0 0 0 0 0 0 0 0 0 0 0 0 0 262144 0 2097152 0 0 0 0 512 0 0 0 0 0 0 0 0 0 0 0 0 0 0 0 0 0 0 0 0 0 0 0 0 0 0 0 0 0 0 0 0 0 0 2 0 0 0 0 0 0 0 0 0 0 0 0 0 0 0 0 0 0 0 0 0 0 0 0 0 0 2147483648 5 0 0 0 0 0 0 0 0 0 0 0 0 0 0 0 0 0 0 0 0 0 0 0 0 0 0 0 0 0 0 0 0 0 0 0 0 0 0 0 0 0 0 0 0 0 0 0 0 0 0 0 0 0 0 0 0 0 0 0 0 0 0 0 4 1 0 0 0 0 0 0 0 0 0 0 0 0 0 0 0 0 0 0 0 0 0 0 0 0 0 0 0 0 0 0 0 0 0 0 0 0 0 0 0 0 0 0 0 0 0 0 0 0 0 0 0 0 0 2147746304 16 68943876 33554440
is_linear=0
shrinkage=0.05


Tree=2
num_leaves=31
num_cat=7
split_feature=13 8 25 5 22 16 14 16 16 23 23 25 6 1 25 16 25 24 25 13 10 0 15 5 4 10 22 24 23 15
split_gain=33472.1 12204.9 12124.3 11622.7 7833.6 11552.7 6655.92 5250.73 4722.01 4182.71 3893.31 3298.65 3292.64 3461.73 5135.47 2900.22 2827.15 3450.89 2696.04 2576.85 2457.8 1880.45 3225.31 2036.38 6677.4 2149.23 1937.1 5050.66 1867.83 2850.91
threshold=31.105000000000004 0 390.98214285714295 1 2.456543833381394 0.13177633412930559 3.5000000000000004 2.28101909176551 8.0485546801678645 1.5000000000000002 1.5000000000000002 979.33821428571434 2 3 55.46958333333334 3.7205178672599213 270.05925000000008 24.17741250938057 17.295833333333338 84.740000000000023 33.84791666666667 4 2.0774766639610394 5 6 19.866071428571434 2.6849543865209893 13.778404653952284 1.5000000000000002 31.168055555555558
decision_type=2 9 2 9 2 2 2 2 2 2 2 2 9 9 2 2 2 2 2 2 2 9 2 9 9 2 2 2 2 2
left_child=1 4 7 -3 6 9 -1 19 12 -6 -4 -7 16 14 -14 -13 17 -5 -9 -2 -12 22 -15 24 -23 -26 -25 -28 -16 -30
right_child=2 3 10 8 5 11 -8 18 -10 -11 20 15 13 21 28 -17 -18 -19 -20 -21 -22 23 -24 26 25 -27 27 -29 29 -31
leaf_value=0.079419388682334044 0.21698631942272187 -0.19988839716103446 -0.20608726956853363 0.24640699050256185 1.8312617192665739 -0.094529269731813859 0.80750580951571471 -1.0191666286725265 0.75292005461454403 0.86501084563011921 0.10100548367509071 0.99935154254947389 -0.21830438572474181 0.15603138183521678 -0.040060353204399463 0.15804787613451482 0.096938270159065726 1.0634646667788425 -0.48525784215001144 -0.27855487523431127 -0.096873596595947215 0.95511752919604387 0.7294345035862464 -0.0029063447798723966 0.12288985414783125 -0.35681747173269596 0.90235164508223531 0.086707976508024406 0.045762487142673128 0.31327792651552178
leaf_weight=207 30 436 495 28 21 31 37 26 25 24 255 21 229 432 536 20 50 24 261 209 408 24 26 995 861 24 20 372 899 112
leaf_count=207 30 436 495 28 21 31 37 26 25 24 255 21 229 432 536 20 50 24 261 209 408 24 26 995 861 24 20 372 899 112
internal_value=0 0.0646142 -0.190404 0.04422 0.341647 0.687467 0.189826 -0.389466 0.0674534 1.31593 -0.0999838 0.29468 0.0638994 0.0569851 0.00268218 0.58896 0.332763 0.623511 -0.533626 -0.216353 -0.0207663 0.0922109 0.184553 0.0726704 0.130759 0.109881 0.0339374 0.128322 0.0353945 0.0753982
internal_weight=0 5454 1684 5093 361 117 244 526 4657 45 1158 72 4632 4530 1776 41 102 52 287 239 663 2754 458 2296 909 885 1387 392 1547 1011
internal_count=7138 5454 1684 5093 361 117 244 526 4657 45 1158 72 4632 4530 1776 41 102 52 287 239 663 2754 458 2296 909 885 1387 392 1547 1011
cat_boundaries=0 112 234 338 339 340 440 441
cat_threshold=0 0 0 0 0 0 0 0 0 0 0 0 0 0 0 0 0 0 0 0 0 0 0 0 0 0 0 0 0 0 0 0 0 0 0 0 0 0 0 0 0 0 0 0 0 0 0 0 0 0 0 0 0 0 32768 0 1075838980 8 0 0 0 0 0 0 0 0 0 0 0 0 0 0 0 0 0 0 0 0 0 0 0 0 0 0 100663296 0 0 0 0 0 0 0 0 0 0 0 0 0 0 0 0 0 0 0 0 0 0 0 0 536871936 16962 1024 0 0 0 0 0 0 0 0 0 0 0 0 0 0 0 0 0 0 0 0 0 0 0 0 0 0 0 0 0 0 0 0 0 0 0 0 0 0 0 0 0 0 0 0 0 0 0 0 0 0 0 0 0 0 0 0 0 0 0 0 0 65536 33554432 260 1 24 0 0 33554432 0 0 0 0 0 0 0 0 0 0 0 0 0 0 0 0 0 0 0 0 0 0 0 1073741824 0 0 0 0 0 0 0 0 0 0 0 0 0 0 0 0 0 0 0 0 0 0 0 0 4194304 2147746304 1074799632 71041172 33554448 0 0 0 0 0 0 0 0 0 0 0 0 0 0 0 0 0 0 0 0 0 0 0 0 0 0 0 0 0 0 0 0 0 0 0 0 0 0 0 0 0 0 0 0 0 0 0 0 0 0 0 0 0 0 0 0 0 0 0 0 0 0 0 0 0 0 0 0 0 0 0 0 0 0 0 0 0 0 0 0 0 0 0 0 0 0 0 0 0 0 0 0 0 0 0 0 0 2147483648 0 268435456 537010208 524288 0 64 4 17 0 0 0 0 0 0 0 0 0 0 0 0 0 0 0 0 0 0 0 0 0 0 0 0 0 0 0 0 0 0 0 0 0 0 0 0 0 0 0 0 0 0 0 0 0 0 0 0 0 0 0 0 0 0 0 0 0 0 0 128 0 0 0 0 0 0 0 0 0 0 0 0 0 0 0 0 0 0 0 0 0 0 0 0 0 0 0 0 0 0 0 0 0 0 0 0 0 0 0 512 1
is_linear=0
shrinkage=0.05


Tree=3
num_leaves=31
num_cat=6
split_feature=13 25 5 16 16 5 6 4 23 22 10 24 24 23 23 13 10 25 4 25 14 25 16 16 16 22 24 25 0 22
split_gain=30216.8 11207.9 10374.4 6227.99 5324.78 4430.25 3744.28 5168.64 4366.33 4319.97 17481.5 4725.09 4092.88 3713.85 3296.32 2858.39 2535.65 2385.95 2366.07 2049.08 2260.48 1869.09 1939.06 3328.63 2870.02 2680.22 6697.86 2628.58 2451.64 3875.79
threshold=23.100000000000005 390.98214285714295 0 8.4934506355879353 2.28101909176551 1 2 3 1.0000000180025095e-35 2.456543833381394 9.8883333333333354 29.042061961728422 14.837183717168196 1.5000000000000002 1.5000000000000002 84.740000000000023 33.84791666666667 17.295833333333338 4 4086.218636363637 1.0000000180025095e-35 193775.83787878792 3.5690606792331216 3.37162301389096 3.4822285323058684 3.0493400418075076 20.310522330439969 373.33116666666672 5 1.228271916690697
decision_type=2 2 9 2 2 9 9 9 2 2 2 2 2 2 2 2 2 2 9 2 2 2 2 2 2 2 2 2 9 2
left_child=2 4 18 5 15 6 7 14 -9 12 11 -11 19 -3 -4 -2 -15 -6 -1 20 -8 22 23 25 -25 28 -27 -24 29 -7
right_child=1 13 3 -5 17 21 9 8 -10 10 -12 -13 -14 16 -16 -17 -18 -19 -20 -21 -22 -23 27 24 -26 26 -28 -29 -30 -31
leaf_value=-0.42414959867631918 0.22359605793442047 -0.1941449317967896 0.26865997291816818 0.96418419772759079 -0.9682082964823796 0.022664638533092599 0.34969821450610961 0.81009448973461995 0.064151812169826128 0.8542352810502053 0.13244831766500029 1.9410992889106276 -0.083929160158885158 0.10330415633437831 1.0455077912489121 -0.26462712802759342 -0.092861764806267968 -0.46636927107811199 -0.11778115377039587 0.80299890354275716 -0.19141004124413366 0.42888838291983122 -0.19918068823856969 0.77718017881115287 0.079624003737137239 0.7463454583271717 0.064341468327782231 0.029551756572641509 0.013719526549982083 0.28321503109745377
leaf_weight=76 35 514 36 20 26 340 120 20 1026 20 86 20 95 269 22 209 425 266 369 20 23 32 175 30 29 48 144 445 1952 246
leaf_count=76 35 514 36 20 26 340 120 20 1026 20 86 20 95 269 22 209 425 266 369 20 23 32 175 30 29 48 144 445 1952 246
internal_value=0 -0.176707 0.0627093 0.0834746 -0.366994 0.0800704 0.151963 0.102957 0.0784146 0.286663 0.534105 1.39767 0.17693 -0.0922748 0.563326 -0.194595 -0.0168263 -0.511054 -0.166366 0.328965 0.262667 0.0483996 0.04497 0.0627497 0.434314 0.0547195 0.234842 -0.0350098 0.0410932 0.129827
internal_weight=0 1744 5394 4949 536 4929 1488 1104 1046 384 126 40 258 1208 58 244 694 292 445 163 143 3441 3409 2789 59 2730 192 620 2538 586
internal_count=7138 1744 5394 4949 536 4929 1488 1104 1046 384 126 40 258 1208 58 244 694 292 445 163 143 3441 3409 2789 59 2730 192 620 2538 586
cat_boundaries=0 122 245 348 349 350 351
cat_threshold=0 0 0 0 0 0 0 0 0 0 0 0 0 0 0 0 0 0 0 0 0 0 0 0 0 0 0 0 0 0 0 0 0 0 0 0 0 0 0 0 0 0 0 0 0 0 0 0 0 0 0 0 0 0 0 0 0 0 0 0 0 0 33554432 4 145 8 0 0 0 512 0 0 0 0 8388608 0 0 0 0 0 0 0 0 0 0 0 0 0 0 0 0 0 0 0 0 0 0 0 0 0 0 0 0 0 0 0 0 0 0 0 0 0 0 0 0 0 0 4194304 2147746305 1073751056 203161620 33554456 0 0 0 0 0 0 0 0 0 0 0 0 0 0 0 0 0 0 0 0 0 0 0 0 0 0 0 0 0 0 0 0 0 0 0 0 0 0 0 0 0 0 0 0 0 0 0 0 0 0 0 0 0 0 0 0 0 0 0 128 256 0 0 0 268435464 0 0 0 33554432 0 0 0 0 0 0 0 0 0 0 0 0 0 0 0 0 0 0 0 0 0 0 0 536870912 0 0 0 0 0 0 512 0 0 0 0 0 0 0 0 0 0 0 0 0 0 0 0 0 0 16777216 256 268469376 768 65568 0 0 0 0 0 0 0 0 0 0 0 0 0 0 0 0 0 0 0 0 0 0 0 0 0 0 0 0 0 0 0 0 0 0 0 0 0 0 0 0 0 0 0 0 0 0 0 16384 0 0 0 0 0 0 0 0 4096 0 0 0 0 0 0 0 0 0 0 0 0 0 0 0 0 0 0 0 0 0 0 0 0 0 512 0 0 0 0 0 0 0 0 0 0 0 0 0 0 0 0 0 0 0 67108864 1 1 17
is_linear=0
shrinkage=0.05


Tree=4
num_leaves=31
num_cat=10
split_feature=13 25 8 6 22 16 25 16 16 5 8 25 25 12 3 24 16 23 15 6 12 15 4 22 23 7 3 13 11 0
split_gain=27272.9 10272.1 10138.2 10429.7 8793.27 11502.5 7849.21 5251.51 4437.12 3842.42 4631.3 3303.13 3223.34 3047.68 4349.42 4147.91 6999.85 2988.38 3148.15 4126.22 3696.13 3074.2 2833.43 2664.6 2550.59 2369.15 2260.35 3040.88 2197.03 2177.91
threshold=31.105000000000004 647.96441176470591 0 1 2.456543833381394 0.13177633412930559 8142.4864166666675 8.4934506355879353 2.3761606029255078 2 3 2550.9537500000006 80.871538461538478 2020.5000000000002 4 14.7589458986276 2.0772728031854668 1.0000000180025095e-35 5.2152876535229487 5 2015.5000000000002 36.375000000000007 6 2.9057809227470321 1.5000000000000002 7 8 99.999830186700009 2022.5000000000002 9
decision_type=2 2 9 9 2 2 2 2 2 9 9 2 2 2 9 2 2 2 2 9 2 2 9 2 2 9 9 2 2 9
left_child=2 8 4 -4 6 -6 -1 9 26 17 -11 -7 28 25 -15 16 -16 -5 19 22 -21 -20 -19 -17 -3 29 27 -2 -10 -12
right_child=1 24 3 7 5 11 -8 -9 12 10 13 -13 -14 14 15 23 -18 18 21 20 -22 -23 -24 -25 -26 -27 -28 -29 -30 -31
leaf_value=0.059322635571111983 0.47152380722885329 -0.16205712623767934 -0.2190635637535403 0.69389172729266724 1.3931347615730305 0.060732922550629488 1.0757071393586342 0.86880796477198607 -0.52484322223398416 -0.11389393554379307 0.20871319469825003 0.82290575582356684 -0.35205498851501038 -0.03115319733421297 1.4881723500788213 0.055751343593968973 0.32151793920331534 0.46807644665241244 -0.25043107424046579 0.28655197001272936 0.99960886016488082 0.37138255837559703 0.078078286034331243 0.6411778272344516 0.001178621120958774 -0.0067774448093412577 -0.3087670645443723 -0.13578828920335956 -1.0390058521391645 0.04877011854271688
leaf_weight=199 24 413 350 23 39 44 21 20 63 482 279 21 256 119 20 77 36 49 97 199 20 25 940 26 569 1475 182 146 31 893
leaf_count=199 24 413 350 23 39 44 21 20 63 482 279 21 256 119 20 77 36 49 97 199 20 25 940 26 569 1475 182 146 31 893
internal_value=0 -0.171883 0.0583116 0.0407297 0.325391 0.714284 0.156341 0.0601699 -0.317938 0.0568987 0.0282529 0.306973 -0.444001 0.051985 0.20965 0.368648 0.73818 0.127878 0.119051 0.143498 0.336314 -0.12301 0.0964258 0.203529 -0.0674735 0.0356226 -0.19259 -0.0472695 -0.694407 0.0882889
internal_weight=0 1684 5454 5130 324 104 220 4780 702 4760 3407 65 350 2925 278 159 56 1353 1330 1208 219 122 989 103 982 2647 352 170 94 1172
internal_count=7138 1684 5454 5130 324 104 220 4780 702 4760 3407 65 350 2925 278 159 56 1353 1330 1208 219 122 989 103 982 2647 352 170 94 1172
cat_boundaries=0 112 215 338 461 462 545 546 608 609 610
cat_threshold=0 0 0 0 0 0 0 0 0 0 0 0 0 0 0 0 0 0 0 0 0 0 0 0 0 0 0 0 0 0 0 0 0 0 0 0 0 0 0 0 0 0 0 0 0 0 0 0 0 0 0 0 0 0 32768 0 1073741824 0 0 0 0 0 0 0 0 0 0 0 0 0 0 0 0 0 0 0 0 0 0 0 0 0 0 0 100663296 0 0 0 0 0 0 0 0 0 0 0 0 0 0 0 0 0 0 0 0 0 0 0 0 536871936 16962 1024 0 0 0 0 0 0 0 0 0 0 0 0 0 0 0 0 0 0 0 0 0 0 0 0 0 0 0 0 0 0 0 0 0 0 0 0 0 0 0 0 0 0 0 0 0 0 0 0 0 0 0 0 0 0 0 0 67112960 0 0 0 0 0 0 0 0 0 0 0 0 0 0 0 0 0 0 0 0 2097152 0 0 0 0 0 0 0 0 0 0 0 0 0 0 0 0 0 0 0 0 2149581824 1073807488 97519880 2147517440 67125248 0 0 0 0 0 0 0 0 0 0 0 0 0 0 0 0 0 0 0 0 0 0 0 0 0 0 0 0 0 0 0 0 0 0 0 0 0 0 0 0 0 0 0 0 0 0 0 0 0 0 0 0 0 0 0 0 0 0 0 128 0 0 0 32768 268435456 0 0 0 0 0 0 0 0 0 0 0 0 0 0 0 0 0 0 0 0 0 0 0 0 0 0 0 0 0 0 0 0 0 0 512 0 0 0 0 0 0 0 0 0 0 0 0 0 0 0 0 0 3072 16777216 21037312 268436516 768 65536 0 0 0 0 0 0 0 0 0 0 0 0 0 0 0 0 0 0 0 0 0 0 0 0 0 0 0 0 0 0 0 0 0 0 0 0 0 0 0 0 0 0 0 0 0 0 0 0 0 0 0 0 0 0 0 0 0 67108864 0 0 0 0 0 0 0 0 0 33554432 0 0 0 0 0 0 0 0 0 0 0 0 0 0 0 0 0 0 0 0 0 0 0 0 0 0 0 0 0 0 0 0 0 0 0 0 0 0 0 100663296 268435456 20480 12 0 65540 0 0 0 0 0 0 0 0 0 32768 17 0 0 0 0 0 0 0 0 0 0 0 0 0 0 0 0 0 0 0 0 0 0 0 0 0 0 0 0 0 0 0 0 0 0 0 0 0 0 0 0 0 0 0 0 0 0 0 16384 0 0 0 0 0 0 0 0 0 0 0 0 0 0 0 0 0 0 0 0 0 0 0 0 0 0 0 0 0 0 0 0 0 0 512 1 0 0 0 0 0 0 0 0 0 0 0 0 0 0 0 0 0 0 0 0 0 0 0 0 0 0 0 0 0 0 0 0 0 0 2 32768 0 0 0 0 0 0 0 0 0 0 0 0 0 0 0 0 0 0 0 0 0 0 0 0 0 2147483648 4 17
is_linear=0
shrinkage=0.05


Tree=5
num_leaves=31
num_cat=7
split_feature=19 5 8 22 16 5 10 23 15 5 22 24 0 12 16 24 1 10 6 24 10 22 10 15 24 24 16 15 22 23
split_gain=24932.8 10698 11402.9 9456.97 7101.61 4201.75 4010.03 3431.92 3328.18 2468.98 2995.95 3461.91 2979.94 5596.28 9736.3 4426.2 3554.89 9392.57 2347.43 5257.66 4249.21 2373.81 2262.57 2434.56 2125.81 1906.32 1824.67 2113.91 1725.42 1648.28
threshold=0.23100000000000001 0 1 2.456543833381394 7.3546668195868667 2 34.016666666666673 1.0000000180025095e-35 3.4995000000000007 3 3.3554855843394331 22.168346156529271 4 2020.5000000000002 2.0885674083670724 19.17903971387209 5 49.915909090909096 6 34.109460316727784 73.037500000000009 1.1476442708722401 19.866071428571434 24.472222222222225 7.829550314345247 12.067415100608583 5.8857518959549031 28.426587301587308 1.9123321295482441 1.5000000000000002
decision_type=2 9 9 2 2 9 2 2 2 9 2 2 9 2 2 2 9 2 9 2 2 2 2 2 2 2 2 2 2 2
left_child=1 28 3 8 5 7 29 -4 -3 -7 12 -12 -11 15 -15 16 26 -18 22 20 24 -22 -9 -24 -20 -16 27 -14 -1 -2
right_child=6 2 4 -5 -6 9 -8 18 -10 10 11 -13 13 14 25 -17 17 -19 19 -21 21 -23 23 -25 -26 -27 -28 -29 -30 -31
leaf_value=-0.24980824929525092 -0.16883306893347441 0.057124626219272612 0.67870799827256378 1.263472164976033 0.80607837601564825 -0.20598820139738649 -0.22313722280164 0.10980268008177099 0.82029711661161864 -0.00086668933507763743 0.68482515006955413 0.09508701182509724 0.0067689720403178409 1.4777011141926051 -0.15323655686030788 0.78660564485582574 0.087169896300073213 1.2014168728142978 0.28139362974578275 0.80840625205180716 0.98230816452276137 0.31991268004241746 -0.18009559435635902 0.41278041645884517 -0.015482506249632155 0.50772187246009703 -0.44861969891935588 -0.5097323204983365 -0.069493872983359573 0.0001310755018417904
leaf_weight=272 232 50 28 37 32 100 1103 902 20 2386 37 76 199 20 24 21 348 20 92 36 21 38 129 20 175 20 32 22 259 382
leaf_count=272 232 50 28 37 32 100 1103 902 20 2386 37 76 199 20 24 21 348 20 92 36 21 38 129 20 175 20 32 22 259 382
internal_value=0 0.0525321 0.0756815 0.564194 0.0635861 0.0587138 -0.166127 0.129659 0.275174 0.0273062 0.0352033 0.288187 0.0260716 0.115489 0.562981 0.072678 0.0485355 0.147727 0.119697 0.228674 0.171668 0.555681 0.0792321 -0.100515 0.0868119 0.147199 -0.0957428 -0.0446474 -0.158866 -0.0637121
internal_weight=0 5416 4885 107 4778 4746 1717 1441 70 3305 3205 113 3092 706 64 642 621 368 1413 362 326 59 1051 149 267 44 253 221 531 614
internal_count=7133 5416 4885 107 4778 4746 1717 1441 70 3305 3205 113 3092 706 64 642 621 368 1413 362 326 59 1051 149 267 44 253 221 531 614
cat_boundaries=0 122 235 361 482 483 484 567
cat_threshold=0 0 0 0 0 0 0 0 0 0 0 0 0 0 0 0 0 0 0 0 0 0 0 0 0 0 0 0 0 0 0 0 0 0 0 0 0 0 0 0 0 0 0 0 0 0 0 0 0 0 0 0 0 0 0 0 0 0 0 524544 0 128 33554432 2097156 128 0 0 0 0 0 0 0 0 0 0 0 0 0 0 0 0 0 0 0 0 0 0 0 0 0 0 0 0 0 0 0 0 0 0 0 0 0 0 0 0 0 0 0 0 0 0 0 0 0 0 0 0 0 2147746305 1073815568 70981652 33637402 0 0 0 0 0 0 0 0 0 0 0 0 0 0 0 0 0 0 0 0 0 0 0 0 0 0 0 0 0 0 0 0 0 0 0 0 0 0 0 0 0 0 0 0 0 0 0 0 0 0 0 0 0 0 32768 0 0 0 0 0 0 0 0 0 0 0 0 0 0 0 0 0 0 0 0 0 0 0 0 0 0 0 0 0 0 0 0 0 0 0 0 0 0 0 0 0 0 0 0 0 0 0 0 0 0 0 0 0 0 1025 66 1024 4 0 0 0 0 0 0 0 0 0 0 0 0 0 0 0 0 0 0 0 0 0 0 0 0 0 0 0 0 0 0 0 0 0 0 0 0 0 0 0 0 0 0 0 0 0 0 0 0 0 0 0 0 0 0 0 0 0 0 0 128 0 0 65536 0 589824 0 0 0 0 0 0 0 0 0 8388608 0 0 0 0 0 0 0 0 0 0 0 0 0 0 0 0 0 536870912 0 0 0 0 0 0 512 0 0 0 0 0 0 0 0 0 0 0 0 0 0 0 0 0 2048 0 256 2428535808 512 32 0 0 128 0 0 0 0 0 0 0 0 0 0 0 0 0 0 0 0 0 0 0 0 0 0 0 0 0 0 0 0 0 0 0 0 0 0 0 0 0 0 0 0 0 0 0 0 0 0 0 0 0 0 0 0 0 0 0 0 0 0 0 0 0 0 0 0 1 0 0 0 33554432 0 0 0 0 0 0 0 0 0 0 0 0 0 0 0 0 0 0 0 0 0 0 0 0 0 0 0 0 0 0 0 0 0 0 0 0 0 0 0 0 0 0 0 0 0 0 0 0 0 0 20971520 262272 10 4 0 0 0 0 0 0 0 0 0 0 0 0 0 0 0 0 0 0 0 0 0 0 0 0 0 0 0 0 0 0 0 0 0 0 0 0 0 0 0 0 0 0 0 0 0 0 0 16384 0 0 0 0 0 0 0 0 0 0 0 0 0 134217728 0 0 0 0 0 0 0 0 0 0 0 0 0 0 0 0 0 0 0 0 512
is_linear=0
shrinkage=0.05


Tree=6
num_leaves=31
num_cat=5
split_feature=19 5 8 24 24 25 16 16 5 25 10 15 24 23 15 23 25 10 24 10 12 24 24 9 24 16 10 16 4 23
split_gain=22497.7 9642.21 11085.3 8858.35 14901.8 8154.94 7333.11 4308.74 3833.83 3361.94 3817.58 3138.1 3764.25 3100.71 2323.28 2269.49 2248.63 2240.15 8123.17 15708.5 3079.68 2412.21 2001.53 1999.88 3792.01 11520.2 3851.77 3171.78 2237.23 3438.04
threshold=0.23100000000000001 0 1 13.416826850522762 28.508494239978656 324.75000000000006 7.3546668195868667 2.3761606029255078 2 1891.7912500000002 35.376000000000012 4.4467120181405901 14.7589458986276 1.0000000180025095e-35 1.0616319444444449 1.5000000000000002 192.02512500000003 64.514705882352956 14.034241524128356 51.645833333333336 2019.5000000000002 28.940746368019337 30.841322052662843 3 34.109460316727784 1.774046455317926 78.166666666666671 5.7036461506223901 4 1.5000000000000002
decision_type=2 9 9 2 2 2 2 2 9 2 2 2 2 2 2 2 2 2 2 2 2 2 2 9 2 2 2 2 9 2
left_child=1 -1 3 -3 -5 7 8 14 13 10 11 22 -13 -4 -2 -7 -12 18 19 -11 -20 -22 -10 28 26 -26 -25 -28 29 -15
right_child=5 2 6 4 -6 15 -8 -9 9 17 16 12 -14 23 -16 -17 -18 -19 20 -21 21 -23 -24 24 25 -27 27 -29 -30 -31
leaf_value=-0.14938285111850741 0.22204423769066733 -0.053922214020382275 0.64477257819048006 1.6876100226360209 0.2178724905236491 -0.16990251267055445 0.8269860191210624 -0.49745705474402996 0.032276616060423251 0.19051890974144706 -0.26233406724201308 0.73765637894393876 0.11681206520031957 0.085075207954076568 -0.25012208098978411 -0.034740166673746346 -0.046582844780950892 0.018860100241293736 0.015281075091085962 1.8805142922699454 0.10919130151719753 0.67676816984183263 -0.13149916074777906 0.091510523489122933 1.5268662942945959 -0.1702034556120634 0.96606182825565345 0.1613430445470537 0.058664361140606414 0.87048841525207876
leaf_weight=538 30 33 28 34 35 545 31 222 1737 44 180 32 103 38 198 722 367 282 244 20 39 36 209 281 20 20 25 24 994 22
leaf_count=538 30 33 28 34 35 545 31 222 1737 44 180 32 103 38 198 722 367 282 244 20 39 36 209 281 20 20 25 24 994 22
internal_value=0 0.0498864 0.0720226 0.564508 0.942091 -0.15782 0.0603472 -0.340663 0.0554658 0.0252995 -3.73789e-05 0.0308591 0.263975 0.12286 -0.187995 -0.0928802 -0.11758 0.125808 0.204553 0.718642 0.101413 0.381628 0.0146871 0.11346 0.21282 0.678331 0.162843 0.571914 0.0758421 0.37306
internal_weight=0 5416 4878 102 69 1717 4776 450 4745 3293 2628 2081 135 1452 228 1267 547 665 383 64 319 75 1946 1424 370 40 330 49 1054 60
internal_count=7133 5416 4878 102 69 1717 4776 450 4745 3293 2628 2081 135 1452 228 1267 547 665 383 64 319 75 1946 1424 370 40 330 49 1054 60
cat_boundaries=0 122 235 361 452 453
cat_threshold=0 0 0 0 0 0 0 0 0 0 0 0 0 0 0 0 0 0 0 0 0 0 0 0 0 0 0 0 0 0 0 0 0 0 0 0 0 0 0 0 0 0 0 0 0 0 0 0 0 0 0 0 0 0 0 0 0 0 0 524544 0 128 0 2097156 128 0 0 0 0 0 0 0 0 0 0 0 0 0 0 0 0 0 0 0 0 0 0 0 0 0 0 0 0 0 0 0 0 0 0 0 0 0 0 0 0 0 0 0 0 0 0 0 0 0 0 0 0 4194304 2147746305 1073815568 70981652 33637394 0 0 0 0 0 0 0 0 0 0 0 0 0 0 0 0 0 0 0 0 0 0 0 0 0 0 0 0 0 0 0 0 0 0 0 0 0 0 0 0 0 0 0 0 0 0 0 0 0 0 0 0 0 0 32768 0 0 0 0 0 0 0 0 0 0 0 0 0 0 0 0 0 0 0 0 0 0 0 0 0 0 0 0 0 0 0 0 0 0 0 0 0 0 0 0 0 0 0 0 0 0 0 0 0 0 0 0 0 0 1025 66 1024 4 0 0 0 0 0 0 0 0 0 0 0 0 0 0 0 0 0 0 0 0 0 0 0 0 0 0 0 0 0 0 0 0 0 0 0 0 0 0 0 0 0 0 0 0 0 0 0 0 0 0 0 0 0 0 0 0 0 0 0 128 0 0 65536 0 269025280 0 0 0 0 0 0 0 0 0 8388608 0 0 0 0 0 0 0 0 0 0 0 0 0 0 0 0 0 536870912 0 0 0 0 0 0 512 0 0 0 0 0 0 0 0 0 0 0 0 0 0 0 0 0 2048 0 256 2428535808 512 32 0 0 128 0 0 0 0 0 0 0 0 0 0 0 0 0 0 0 0 0 0 0 0 0 0 0 0 0 0 0 0 0 0 0 0 0 0 0 2147483648 0 0 0 0 0 0 0 0 0 0 0 0 0 0 0 0 0 0 0 0 0 0 0 0 0 0 0 0 0 0 0 0 0 0 0 0 0 0 0 0 0 0 0 0 0 0 0 0 0 0 0 0 0 0 262144 1
is_linear=0
shrinkage=0.05


Tree=7
num_leaves=31
num_cat=6
split_feature=19 6 22 20 5 25 22 10 25 10 22 15 16 22 25 25 5 15 15 8 25 25 21 10 12 12 25 6 1 25
split_gain=20301.3 9400.79 8185.43 14168.7 8092.74 7359.83 6034.84 3934.62 3397.32 6708.9 4464.07 3435.39 6795.95 5508.82 7795.57 2986.64 2489.75 4041.92 2489.15 2242.39 2199.14 9128.32 2181.21 2151.14 2112.68 2093.05 3465.6 1846.41 2104.23 1783.94
threshold=0.23100000000000001 0 3.3554855843394331 1.0000000180025095e-35 1 324.75000000000006 2.9057809227470321 25.987857142857145 1891.7912500000002 35.376000000000012 1.7189186626342436 19.085416666666671 3.2961907715922201 1.1910491137108059 13841.800000000001 39377.216666666674 2 4.4467120181405901 5.001904761904763 3 98.467200000000005 936.55833333333351 3.0000000000000004 18.990476190476194 2015.5000000000002 2019.5000000000002 2662.2483333333334 4 5 17.295833333333338
decision_type=2 9 2 2 9 2 2 2 2 2 2 2 2 2 2 2 9 2 2 9 2 2 2 2 2 2 2 9 9 2
left_child=1 -1 4 -4 6 7 20 24 9 16 11 13 -13 -10 -15 -5 23 27 -19 -7 22 -22 -3 -6 -2 -12 -27 -18 -29 -9
right_child=5 2 3 15 8 19 -8 29 10 -11 25 12 -14 14 -16 -17 17 18 -20 -21 21 -23 -24 -25 -26 26 -28 28 -30 -31
leaf_value=-0.17348016557715801 0.097974844959000468 -0.012676418292057979 1.3190562642508132 0.088381494397359081 0.12725576665775559 0.11892232879148266 1.1496869709681381 -0.84454321427778778 0.054419967728899787 -0.12120906444440463 -0.0099785928575224017 1.3845968584530057 0.16855901468683174 0.2209483368244643 1.3404856631937234 0.74795509062707433 -0.078969690359923961 0.75289748919506871 0.1874743430065986 -0.10861061183878547 1.0456642804422269 0.041641718022791402 0.5733861492574216 -0.39646821871865545 -0.3494003229375397 0.83330731935799118 0.10492003874413754 -0.10574849161587783 0.056863037490116133 -0.37884078312735442
leaf_weight=434 71 77 34 121 997 113 22 22 160 681 380 20 27 48 23 20 499 24 103 1154 38 56 20 20 42 20 89 236 1267 315
leaf_count=434 71 77 34 121 997 113 22 22 160 681 380 20 27 48 23 20 499 24 103 1154 38 56 20 20 42 20 89 236 1267 315
internal_value=0 0.0473783 0.0668322 0.402864 0.0547379 -0.149929 0.349112 -0.32363 0.0402417 0.0210802 0.136374 0.296356 0.686022 0.217073 0.583615 0.181938 0.0518809 0.0206978 0.294326 -0.0882362 0.275177 0.447523 0.108161 0.115818 -0.0683062 0.0454236 0.238569 0.00344318 0.0311228 -0.409243
internal_weight=0 5416 4982 175 4807 1717 213 450 4594 3827 767 278 47 231 71 141 3146 2129 127 1267 191 94 97 1017 113 489 109 2002 1503 337
internal_count=7133 5416 4982 175 4807 1717 213 450 4594 3827 767 278 47 231 71 141 3146 2129 127 1267 191 94 97 1017 113 489 109 2002 1503 337
cat_boundaries=0 103 226 326 435 533 534
cat_threshold=0 0 0 0 0 0 0 0 0 0 0 0 0 0 0 0 0 0 0 0 0 0 0 0 0 0 0 0 0 0 0 0 0 0 0 0 0 0 0 0 0 0 0 0 0 0 0 0 134217728 0 0 268509184 1074266112 0 0 0 67108864 0 0 0 16 0 0 0 0 0 0 0 0 0 0 0 0 0 0 0 0 0 0 0 0 0 0 0 0 0 0 0 0 0 0 0 0 0 0 0 0 0 2149581824 1090584704 30411016 2432729088 67108864 0 0 0 0 0 0 0 0 0 0 0 0 0 0 0 0 0 0 0 0 0 0 0 0 0 0 0 0 0 0 0 0 0 0 0 0 0 0 0 0 0 0 0 0 0 0 0 0 0 0 0 0 0 0 0 0 0 0 0 0 0 0 0 0 0 0 0 0 33554432 0 0 0 0 0 8388608 0 0 0 0 0 0 0 0 0 0 0 0 0 0 0 0 0 0 0 0 0 0 0 0 0 0 0 0 0 0 0 0 0 0 0 0 0 0 0 0 0 0 1024 0 65792 2550170784 0 65536 0 0 0 0 0 0 0 0 0 0 0 0 0 0 0 0 0 0 0 0 0 0 0 0 0 0 0 0 0 0 0 0 0 0 0 0 0 0 0 0 0 0 0 0 0 0 0 0 0 0 0 0 0 0 0 0 0 0 0 128 0 0 0 0 0 0 0 0 0 0 0 0 0 0 0 0 0 0 0 0 0 0 0 0 0 0 0 0 0 0 0 0 536870912 0 0 0 0 0 0 512 0 0 0 0 0 0 0 0 0 0 0 0 0 0 0 0 0 0 0 0 0 0 0 0 0 0 0 0 0 0 0 0 0 0 0 0 0 0 0 0 0 0 0 0 0 0 0 0 0 0 0 0 0 0 0 0 0 0 0 0 0 0 1 0 0 0 0 33554432 0 0 0 0 0 0 0 0 0 0 0 0 0 0 0 0 33554432 0 0 0 0 0 0 0 0 0 0 0 0 0 0 0 0 0 0 0 0 0 0 0 268435456 0 0 0 0 0 0 0 0 0 0 0 0 0 0 0 0 0 0 0 0 0 0 0 0 0 0 0 0 0 0 0 0 0 0 0 0 0 0 0 0 0 0 0 0 0 0 0 0 0 0 0 0 0 0 0 0 0 0 0 0 0 0 0 0 0 0 0 0 0 0 0 0 0 0 0 0 0 0 0 0 0 0 512 0 0 0 0 0 0 0 0 0 0 0 0 0 0 1073741824 4
is_linear=0
shrinkage=0.05


Tree=8
num_leaves=31
num_cat=8
split_feature=19 6 5 22 10 22 24 25 8 16 25 16 15 1 4 25 16 22 22 24 14 8 15 23 8 24 23 24 24 5
split_gain=18316.8 8598.4 7922.89 9107.61 13778.2 6942.41 25310.9 6642.49 3724.49 3649.71 2881.46 4743.41 7467.54 4370.21 5827.72 2440.8 2197.39 2106.9 5499.22 2073.5 2360.39 2033.98 1992.65 1946.18 1827.99 2877.03 1731.29 1427.87 3321.97 1340.86
threshold=0.23100000000000001 0 1 2.456543833381394 9.8883333333333354 3.3554855843394331 11.373441897245252 324.75000000000006 2 2.3761606029255078 5647.8250000000007 2.860932068180126 31.168055555555558 3 4 192.02512500000003 3.1339475490700486 1.3650151631262493 1.0587061870654284 30.417963873188189 1.0000000180025095e-35 5 1.0616319444444449 1.5000000000000002 6 30.75378471206491 1.0000000180025095e-35 23.191040099989021 13.683903863918543 7
decision_type=2 9 9 2 2 2 2 2 9 2 2 2 2 9 9 2 2 2 2 2 2 9 2 2 9 2 2 2 2 9
left_child=1 -1 3 17 -5 8 -7 9 -4 22 11 12 24 14 -12 16 -13 18 -3 20 -8 -9 -2 -23 25 27 -26 28 -10 -28
right_child=7 2 5 4 -6 6 19 21 10 -11 13 15 -14 -15 -16 -17 -18 -19 -20 -21 -22 23 -24 -25 26 -27 29 -29 -30 -31
leaf_value=-0.19734419742301323 0.212802970657746 0.042221586375186845 -0.15268273504511246 1.7275099217891694 0.25816610165131398 2.0336304989457132 0.095194638757005567 0.11345963172341994 0.088305503164612983 -0.45175418195562217 0.93335655654470129 -0.74106909081339845 0.95646008398869764 0.70477137165410175 0.077894337028605432 -0.031209240179291262 -0.18356102469597799 -0.044316070868541869 0.99685683101415634 -0.11987966442225027 0.61719471116860714 -0.1760699211276392 -0.22447670131846512 -0.045521540695848239 0.4040749555284327 0.79000574372708798 0.08856774196066762 -0.19372561120986939 0.7897624478453682 0.017749278116894574
leaf_weight=334 30 48 237 27 39 20 63 113 86 222 21 20 23 35 383 522 152 71 22 51 33 518 198 636 33 20 969 25 21 2161
leaf_count=334 30 48 237 27 39 20 63 113 86 222 21 20 23 35 383 522 152 71 22 51 33 518 198 636 33 20 969 25 21 2161
internal_value=0 0.0449861 0.0611805 0.357246 0.859261 0.0479035 0.364811 -0.14243 0.0367641 -0.307448 0.0470426 0.033903 0.0586312 0.168795 0.122361 -0.0850344 -0.248388 0.147596 0.34225 0.137761 0.274632 -0.0838204 -0.16694 -0.103227 0.0524019 0.21689 0.0436735 0.146486 0.225975 0.0400133
internal_weight=0 5416 5082 207 66 4875 167 1717 4708 450 4471 4032 3338 439 404 694 172 141 70 147 96 1267 228 1154 3315 152 3163 132 107 3130
internal_count=7133 5416 5082 207 66 4875 167 1717 4708 450 4471 4032 3338 439 404 694 172 141 70 147 96 1267 228 1154 3315 152 3163 132 107 3130
cat_boundaries=0 103 226 339 340 341 450 562 662
cat_threshold=0 0 0 0 0 0 0 0 0 0 0 0 0 0 0 0 0 0 0 0 0 0 0 0 0 0 0 0 0 0 0 0 0 0 0 0 0 0 0 0 0 0 0 0 0 0 0 0 134217728 0 0 8192 1074266112 0 0 0 67108864 0 0 0 0 0 0 0 0 0 0 0 0 0 0 0 0 0 0 0 0 0 0 0 0 0 0 0 0 0 0 0 0 0 0 0 0 0 0 0 0 0 2149581824 1090584576 22022408 2164260864 67108864 0 0 0 0 0 0 0 0 0 0 0 0 0 0 0 0 0 0 0 0 0 0 0 0 0 0 0 0 0 0 0 0 0 0 0 0 0 0 0 0 0 0 0 0 0 0 0 0 0 0 0 0 0 0 0 0 0 0 0 0 0 0 0 0 0 0 0 0 33554432 0 0 0 0 0 0 0 0 0 0 0 0 0 0 0 0 0 0 0 0 0 0 0 0 0 0 0 0 0 0 0 0 0 0 0 0 0 0 0 0 0 0 0 0 0 0 0 0 1024 16777216 4259840 402687136 0 65536 0 0 0 0 0 0 0 0 0 0 0 0 0 0 0 0 0 0 0 0 0 0 0 0 0 0 0 0 0 0 0 0 0 0 0 0 0 0 0 0 0 0 0 0 0 0 0 0 0 0 0 0 0 0 32768 0 0 0 0 0 0 0 0 0 0 67108864 0 0 0 0 0 0 0 0 0 0 0 0 0 0 0 0 0 0 0 0 0 0 0 0 0 0 0 0 0 0 0 0 0 0 0 0 0 0 0 0 0 100663296 268959744 33558529 0 4194304 65540 4 2 0 0 0 0 0 0 0 0 0 0 0 0 0 0 0 0 0 0 0 0 0 0 0 0 0 0 0 0 0 0 0 0 0 0 0 0 0 0 0 0 0 0 0 0 0 0 0 0 0 0 0 0 0 0 0 0 0 0 0 0 0 0 1 0 0 0 0 33554432 0 0 0 0 0 0 0 0 0 0 0 0 0 0 0 0 33554432 0 0 0 0 0 0 0 0 0 0 0 0 0 0 0 0 0 0 0 0 0 0 0 268435456 0 0 0 0 0 0 0 0 0 0 0 0 0 0 0 0 0 0 0 0 0 0 0 0 0 0 0 0 0 0 0 0 0 0 0 0 0 0 0 0 0 0 0 0 0 0 0 0 0 0 0 0 0 0 0 0 0 0 0 0 0 0 0 0 0 0 0 0 0 0 0 0 0 0 0 0 0 0 0 0 0 0 0 0 100663296 0 0 0 0 0 0 0 0 0 0 0 0 0 0 0 0 0 0 0 0 0 0 0 0 0 65536 1024 0 0 0 0 0 0 0 0 0 0 0 0 0 0 0 0 0 0 0 0 0 0 0 0 0 0 0 0 0 0 0 0 0 0 0 0 0 0 0 0 0 0 0 0 0 0 0 0 0 0 0 0 0 0 0 0 0 0 0 128 0 0 0 0 0 0 0 0 0 0 0 0 0 0 0 0 0 0 0 0 0 0 0 0 0 0 0 0 0 0 0 0 0 0 0 0 0 0 0 512
is_linear=0
shrinkage=0.05


Tree=9
num_leaves=31
num_cat=6
split_feature=19 8 6 25 25 22 16 24 16 25 25 10 5 4 8 15 25 10 1 24 12 16 15 23 23 15 22 24 24 24
split_gain=16520.6 8217.91 8145.49 7250.14 6115.95 5794.33 8231.62 5996.15 5758.45 12884.1 3477.12 3635.57 2723.42 2662.7 2556.02 2535.01 2091.97 3735.09 3653.86 7774.63 3026.77 4933.23 2378.14 4760.29 2059.27 2027.07 1991.81 2293.98 1891.26 2067.97
threshold=0.23100000000000001 0 1 5903.9118333333345 647.96441176470591 2.456543833381394 2.6406717288729413 28.026091494174818 7.0705816410412616 2611.420833333334 15.591000000000001 25.987857142857145 2 3 4 4.7958333333333343 1120.1785714285718 35.376000000000012 5 14.104758590660046 2020.5000000000002 2.7538269403517228 4.4467120181405901 1.5000000000000002 1.0000000180025095e-35 4.0036764705882364 3.3554855843394331 21.413683566618001 26.903445554485788 12.433948008943027
decision_type=2 9 9 2 2 2 2 2 2 2 2 2 9 9 9 2 2 2 9 2 2 2 2 2 2 2 2 2 2 2
left_child=1 3 -3 5 10 15 7 -7 12 -10 -2 -12 13 -4 -14 -1 17 22 20 -20 -18 -22 26 -24 -15 28 -16 -28 29 -19
right_child=4 2 8 -5 -6 6 -8 -9 9 -11 11 -13 14 24 16 -17 18 25 19 -21 21 -23 23 -25 -26 -27 27 -29 -30 -31
leaf_value=0.0014125599492206631 -0.78863024095009115 -0.21233607147110584 0.31945859882675237 1.0827490750838209 -0.059694412098636573 1.639595884382725 -0.1023723284580878 0.52915445342059098 -0.20815832384608013 1.5453009176254273 -0.018893050858512141 -0.29631651063054926 -0.08686545541109604 0.54455448249759886 0.014511574632138237 0.48744275055360053 0.030846800669950394 -0.14397493553874285 1.1533837398290634 0.0056171444762084218 0.89394337914085809 0.081108890021485955 0.85967340566791028 0.067378849466996543 0.0673456558648165 -0.22379331530340144 0.74858547445386658 0.073734955358154636 -0.24176507615656764 0.28758678470073001
leaf_weight=166 29 322 122 27 1046 20 28 31 22 20 156 486 525 23 1477 32 578 46 25 36 28 56 26 70 1322 236 20 34 54 70
leaf_count=166 29 322 122 27 1046 20 28 31 22 20 156 486 525 23 1477 32 578 46 25 36 28 56 26 70 1322 236 20 34 54 70
internal_value=0 0.0427143 0.0273222 0.291071 -0.135275 0.224411 0.586447 0.964622 0.0438417 0.626822 -0.253096 -0.228905 0.038777 0.0951453 0.0132433 0.0799629 0.0325585 0.00669848 0.105724 0.476013 0.0716042 0.352054 0.0405534 0.281959 0.0755061 -0.128971 0.0254163 0.32368 0.0026642 0.11645
internal_weight=0 5416 5112 304 1717 277 79 51 4790 42 671 642 4748 1467 3281 198 2756 2033 723 61 662 84 1627 96 1345 406 1531 54 170 116
internal_count=7133 5416 5112 304 1717 277 79 51 4790 42 671 642 4748 1467 3281 198 2756 2033 723 61 662 84 1627 96 1345 406 1531 54 170 116
cat_boundaries=0 113 216 342 343 466 467
cat_threshold=0 0 0 0 0 0 0 0 0 0 0 0 0 0 0 0 0 0 0 0 0 0 0 0 0 0 0 0 0 0 0 0 0 0 0 0 0 0 0 0 0 0 0 0 0 0 0 0 0 0 0 0 0 0 32768 0 1075838980 0 0 0 0 0 0 0 0 0 0 0 0 0 0 0 0 0 0 0 0 0 0 0 0 0 0 0 67108864 0 0 0 0 0 0 0 0 0 0 0 0 0 0 0 0 0 0 0 0 0 0 0 0 536871937 16450 1024 4 0 0 0 0 0 0 0 0 0 0 0 0 0 0 0 0 0 0 0 0 0 0 0 0 0 0 0 0 0 0 0 0 0 0 0 0 0 0 0 0 0 0 0 0 0 0 0 0 0 0 0 8192 1074266112 0 0 0 67112960 0 0 0 0 0 0 0 0 0 0 0 0 0 0 0 0 0 0 0 0 0 0 0 0 0 0 0 0 0 0 0 0 0 0 0 0 0 0 0 0 0 2149581824 1090584576 89131272 2147516432 67108864 0 0 0 0 0 0 0 0 0 0 0 0 0 0 0 0 0 0 0 0 0 0 0 0 0 0 0 0 0 0 0 0 0 0 0 0 0 0 0 0 0 0 0 0 0 0 0 0 0 0 0 0 0 0 0 0 0 0 0 128 0 0 65536 262144 268500992 0 0 0 0 0 0 0 0 0 8388608 0 0 0 0 0 0 0 0 0 0 0 0 0 0 0 0 0 536870912 0 0 0 0 0 0 512 0 0 0 0 0 0 0 0 0 0 0 0 0 0 0 0 0 3072 0 66816 2420212768 512 0 0 0 128 1 0 0 0 0 0 0 0 0 0 0 0 0 0 0 0 0 0 0 0 0 0 0 0 0 0 0 0 0 0 0 0 0 0 0 0 0 0 0 0 0 0 0 0 0 0 0 0 0 0 0 0 0 0 0 0 0 0 0 0 0 0 0 0 0 0 67108864 0 0 0 0 0 0 0 0 0 0 0 0 0 0 0 0 0 0 0 0 0 0 0 0 0 0 0 0 0 0 0 0 0 0 0 0 0 0 0 0 0 100663296 273154048 33558528 12 4194304 65536 0 0 0 0 0 0 0 0 0 32768 4
is_linear=0
shrinkage=0.05


Tree=10
num_leaves=31
num_cat=5
split_feature=6 13 8 25 8 25 24 16 10 16 15 25 25 11 25 25 15 13 10 24 24 13 8 4 24 23 10 16 25 16
split_gain=12393 9602.79 7290.14 6139.51 3401.36 3864.99 7640.03 6142.29 12082.9 3952.75 3501.48 3266.57 2391.24 2199.9 5334.17 2068.34 4124.77 1885.5 1882.94 1785.91 1738.99 1545.69 1279.03 4750.26 4481.7 2492.07 1222.02 1259.81 1238.98 1219.41
threshold=0 81.121592150000012 1 10.25166666666667 2 8802.3500000000022 14.104758590660046 2.5732770814050849 80.021052631578968 2.2993151020731983 28.975000000000005 647.96441176470591 113.72166666666668 2022.5000000000002 335.60200000000003 146.78000000000003 4.8491071428571439 5.0111430494500011 23.741666666666671 16.508503386594395 19.612127417444828 595.61589700000013 3 4 22.377729539833883 1.5000000000000002 72.65000000000002 3.5483215084600475 3339.1166666666672 7.3546668195868667
decision_type=9 2 9 2 9 2 2 2 2 2 2 2 2 2 2 2 2 2 2 2 2 2 9 9 2 2 2 2 2 2
left_child=13 2 15 -3 -4 9 7 -7 -9 10 22 20 -11 -1 17 19 -17 -15 -8 -2 -5 -22 23 24 -6 -25 27 -13 -29 -14
right_child=1 3 4 11 5 6 18 8 -10 12 -12 26 29 14 -16 16 -18 -19 -20 -21 21 -23 -24 25 -26 -27 -28 28 -30 -31
leaf_value=-0.1622371566714719 0.96568806303631782 -0.98266644269227987 -0.10424027325137908 0.061315981777650977 1.0533342452576526 0.00960931875742972 0.53908373828977341 1.6418514742116845 0.27299822743393876 -0.23113614136130556 0.71855850830674184 -0.040688237895211976 -0.010383015585215233 -0.45612246555586655 -0.16960167873580501 -0.15941964946687223 0.76757967071164224 -1.0552462216081291 0.037086066573219827 0.40585442668405075 -0.27136270569981602 0.019863255887937088 0.047903174924858363 -0.35011862558038798 0.13360322967723565 0.21183934585845218 -0.36722777738020973 0.028577270926061001 0.47518413613239929 -0.35793381516750045
leaf_weight=528 28 20 402 56 26 32 20 28 38 159 20 610 861 24 106 28 21 29 283 29 368 52 3139 34 27 47 26 44 24 26
leaf_count=528 28 20 402 56 26 32 20 28 38 159 20 610 861 24 106 28 21 29 283 29 368 52 3139 34 27 47 26 44 24 26
internal_value=0 0.0136206 0.0428193 -0.113962 0.0338221 0.045726 0.19434 0.578095 0.853724 0.0320968 0.0589932 -0.099238 -0.0525781 -0.208304 -0.374383 0.435039 0.237866 -0.783945 0.0702212 0.68086 -0.200409 -0.235306 0.0549629 0.201711 0.584792 -0.0240442 -0.0308323 -0.0179322 0.186203 -0.0205705
internal_weight=0 6448 5248 1200 5142 4740 401 98 66 4339 3293 1180 1046 687 159 106 49 53 303 57 476 420 3273 134 53 81 704 678 68 887
internal_count=7135 6448 5248 1200 5142 4740 401 98 66 4339 3293 1180 1046 687 159 106 49 53 303 57 476 420 3273 134 53 81 704 678 68 887
cat_boundaries=0 106 217 330 443 444
cat_threshold=0 0 0 0 0 0 0 0 0 0 0 0 0 0 0 0 0 0 0 0 0 0 0 0 0 0 0 0 0 0 0 0 0 0 0 0 0 0 0 0 0 0 0 0 0 0 0 0 0 64 2 0 139468800 40960 32 0 4096 0 0 0 16 0 0 0 0 0 0 0 0 0 0 0 0 0 0 0 0 2097152 0 0 0 0 0 0 0 0 0 0 0 0 0 0 0 0 0 0 0 0 2149580800 1092681856 42993920 3221750856 0 0 0 1048576 0 0 0 0 0 0 0 0 0 0 0 0 0 0 0 0 0 0 0 0 0 0 0 0 0 0 0 0 0 0 0 0 0 0 0 0 0 0 0 0 0 0 0 0 0 0 0 0 0 0 0 0 0 0 0 0 0 0 0 0 0 0 0 0 0 0 0 0 0 0 0 0 0 0 0 0 0 0 0 0 0 0 0 0 0 0 0 0 0 0 0 0 0 0 0 0 0 0 0 0 0 0 0 0 0 0 0 0 0 1153 82434 0 0 0 0 0 0 0 0 0 0 0 0 0 0 0 0 0 0 0 0 0 0 0 0 0 0 0 0 0 0 0 0 0 0 0 0 0 0 0 0 0 0 0 0 0 0 0 0 0 0 0 0 0 0 32768 0 0 637534208 0 0 0 0 0 0 0 0 0 33554432 0 0 0 0 0 0 0 0 0 0 0 0 0 0 0 0 33554432 524288 0 0 0 0 0 0 0 0 0 0 0 0 0 0 0 0 0 0 0 0 0 67108864 272629760 578818048 1036 0 65536 0 0 0 0 0 0 0 0 0 0 0 0 0 0 0 0 0 0 0 0 0 0 0 0 0 0 0 0 0 0 0 0 0 0 0 0 0 0 0 0 0 0 0 0 0 0 0 0 0 0 0 0 0 0 0 0 0 0 0 0 0 0 0 0 0 0 0 0 0 0 0 0 0 0 0 0 0 0 0 0 0 0 0 0 67108864 0 0 0 0 0 0 0 0 0 0 0 0 0 0 0 0 0 0 0 0 0 0 0 524288 131104 0 0 4 8
is_linear=0
shrinkage=0.05


Tree=11
num_leaves=31
num_cat=4
split_feature=6 13 8 25 5 12 8 25 24 22 15 16 25 25 15 22 24 12 24 11 25 22 13 11 23 24 13 16 24 24
split_gain=11345.8 8754.78 6752.68 5170.72 3540.75 5128.23 3942.92 3640.9 6645.69 11042.6 5238.86 4264.73 2780.15 2656.02 2651.17 2340.55 1851.11 2909.84 2220.89 1836.13 5015.63 1799.69 1701.66 1677.07 1484.02 1323.45 1274.84 1452.37 3125.52 2563.32
threshold=0 81.121592150000012 1 12.992000000000003 2 2016.5000000000002 3 8802.3500000000022 14.104758590660046 1.1910491137108059 6.0027777777777791 2.6406717288729413 647.96441176470591 186.76500000000004 31.168055555555558 1.1910491137108059 21.112762341475285 2011.5000000000002 13.683903863918543 2022.5000000000002 335.60200000000003 3.6077682750000144 5.0111430494500011 2023.5000000000002 1.5000000000000002 12.54756021432104 12.080000000000002 2.4465469986818547 25.308313106194664 31.415319572337356
decision_type=9 2 9 2 9 2 9 2 2 2 2 2 2 2 2 2 2 2 2 2 2 2 2 2 2 2 2 2 2 2
left_child=19 2 16 -3 5 -4 25 11 9 10 -9 14 15 -13 21 -5 18 -18 -2 -1 22 23 -21 -8 -10 -6 27 28 -26 -30
right_child=1 3 4 12 6 -7 7 8 24 -11 -12 13 -14 -15 -16 -17 17 -19 -20 20 -22 -23 -24 -25 26 -27 -28 -29 29 -31
leaf_value=-0.15370500386675651 0.41079833605166138 -0.82030978426337242 0.14661058636359225 0.34100492715835573 -0.40537154483795174 0.97875810439387956 0.045892476163110568 -0.064303010243635925 -0.10546009597651984 1.3948804603682625 0.82877228722597163 -0.22243068615651942 -0.030492230481501448 -0.024615362479500198 0.58434497237853378 -0.21188644191517492 -0.045801211196568707 0.7164807775190899 1.0956826730840841 -0.43331633030126498 -0.15521273323524315 0.51861124306917195 -1.002483914535621 -0.37356891691063843 -0.089510185881094495 -0.11510859343421753 -0.077659668042152019 0.087049515031349778 1.054351946786046 0.26342017423538938
leaf_weight=550 29 25 81 20 50 24 3345 52 92 27 24 220 699 742 23 446 31 21 20 24 113 20 29 24 22 183 54 104 20 21
leaf_count=550 29 25 81 20 50 24 3345 52 92 27 24 220 699 742 23 446 31 21 20 24 113 20 29 24 22 183 54 104 20 21
internal_value=0 0.0135566 0.041434 -0.108826 0.0329321 0.307527 0.0265924 0.0364943 0.177922 0.526297 0.217721 0.023127 -0.0935582 -0.0698538 0.0493426 -0.188157 0.427505 0.262043 0.690343 -0.19497 -0.343438 0.0457117 -0.744748 0.0429043 0.0632806 -0.170097 0.133526 0.201813 0.391264 0.649241
internal_weight=0 6419 5229 1190 5128 105 5023 4790 416 103 76 4374 1165 962 3412 466 101 52 49 716 166 3389 53 3369 313 233 221 167 63 41
internal_count=7135 6419 5229 1190 5128 105 5023 4790 416 103 76 4374 1165 962 3412 466 101 52 49 716 166 3389 53 3369 313 233 221 167 63 41
cat_boundaries=0 106 217 339 452
cat_threshold=0 0 0 0 0 0 0 0 0 0 0 0 0 0 0 0 0 0 0 0 0 0 0 0 0 0 0 0 0 0 0 0 0 0 0 0 0 0 0 0 0 0 0 0 0 0 0 0 0 64 2 0 139468800 40960 32 0 4096 0 0 0 16 0 0 0 0 0 0 0 0 0 0 0 0 0 0 0 0 2097152 0 0 0 0 0 0 0 0 0 0 0 0 0 0 0 0 0 0 0 0 2149580800 1092681856 177211648 3221750856 0 0 0 1048576 0 0 0 0 0 0 0 0 0 0 0 0 0 0 0 0 0 0 0 0 0 0 0 0 0 0 0 0 0 0 0 0 0 0 0 0 0 0 0 0 0 0 0 0 0 0 0 0 0 0 0 0 0 0 0 0 0 8 0 0 0 0 0 0 0 0 0 0 0 0 0 0 0 0 0 0 0 0 0 0 0 0 0 0 0 0 0 0 0 0 0 0 0 0 0 0 0 0 0 0 0 0 0 0 0 0 0 0 0 1152 82434 0 0 0 0 0 0 0 0 0 0 0 0 0 0 0 0 0 0 0 0 0 0 0 0 0 0 0 0 0 0 0 0 0 0 0 0 0 0 0 0 0 0 0 0 0 0 0 0 0 0 0 0 0 0 0 0 0 0 0 0 0 1073741824 0 32768 268435456 0 0 0 0 0 0 0 0 0 0 0 0 0 0 0 0 0 0 0 0 0 0 0 0 0 0 0 0 0 0 0 0 0 0 0 0 0 0 0 0 0 0 0 0 0 0 0 0 0 0 0 0 1024 0 4194304 134217728 256 0 0 0 0 0 0 0 0 0 0 0 0 0 0 0 0 0 0 0 0 0 0 0 0 0 0 0 0 0 0 0 0 0 0 0 0 0 0 0 0 0 0 0 0 0 0 0 0 0 0 0 0 0 0 0 0 0 603979776 0 0 0 0 0 0 0 0 0 33554432 0 0 0 0 0 0 0 0 0 0 0 0 0 0 0 0 0 0 0 0 0 0 0 0 0 0 0 0 0 0 0 0 0 0 0 0 0 0 0 67108864 272629760 41947137 1032 0 4
is_linear=0
shrinkage=0.05


Tree=12
num_leaves=31
num_cat=6
split_feature=6 13 5 25 4 24 25 16 24 22 4 25 15 12 15 25 24 15 22 12 10 25 24 15 11 23 2 16 3 22
split_gain=10264.9 8035.87 4666.24 4652.84 3755.91 10970.6 3516.2 5063.88 4061.98 9083.9 5367.12 3678.19 2977.49 3410.98 2865.97 2596.25 2523.4 2529.6 2129.49 1887.85 3416.79 3778.35 1442.57 2827.33 2027.4 2482.63 2354.55 2177.49 1579.68 5534.41
threshold=0 81.121592150000012 1 12.992000000000003 2 14.430560813187824 5647.8250000000007 2.2993151020731983 14.104758590660046 1.1910491137108059 3 137.73504545454549 5.7273232323232337 1.0000000180025095e-35 28.426587301587308 647.96441176470591 18.413544061757253 12.180238095238098 1.1910491137108059 2015.5000000000002 57.745588235294129 129.46250000000001 30.75378471206491 7.4955357142857153 2022.5000000000002 1.5000000000000002 4 1.4240694167595815 5 3.3554855843394331
decision_type=9 2 9 2 9 2 2 2 2 2 9 2 2 2 2 2 2 2 2 2 2 2 2 2 2 2 9 2 9 2
left_child=19 2 4 -3 5 -2 7 14 9 10 -8 16 13 -7 22 18 -9 -18 -5 -1 -21 -22 24 -24 26 -26 -4 -27 29 -28
right_child=1 3 6 15 -6 12 8 11 -10 -11 -12 -13 -14 -15 -16 -17 17 -19 -20 20 21 -23 23 -25 25 27 28 -29 -30 -31
leaf_value=-0.13795161374109741 1.4000962672755124 -0.7792942743301392 0.22885209305355181 0.32395466804504397 -0.025915957948959928 0.18879521892026618 0.84888380455474055 -0.074881445085522774 0.071781725177589698 1.0668490231011269 -0.051652972409740476 -0.0362899574780512 -0.13024283765982358 0.91589555403460621 0.64104544606059788 -0.028701553341680053 -0.19979223511181773 -0.67941709199437395 -0.20334387061420522 -0.16512693753211352 -1.1800667780637741 -0.36919857903438458 -0.099577224985904877 0.34030610153042695 -0.41391668064044973 -0.20349822586609259 0.086470135217354138 0.38440758873309411 0.023502383160033734 0.89095008759336047
leaf_weight=512 24 25 185 20 68 54 21 87 424 36 78 849 39 23 20 697 56 54 449 128 20 51 335 41 51 36 757 28 1945 22
leaf_count=512 24 25 185 20 68 54 21 87 424 36 78 849 39 23 20 697 56 54 449 128 20 51 335 41 51 36 757 28 1945 22
internal_value=0 0.0128263 0.0395249 -0.104374 0.266152 0.427024 0.0295557 0.0148171 0.147835 0.386698 0.13937 -0.0814548 0.225699 0.405981 0.0442617 -0.0899033 -0.276099 -0.435244 -0.180858 -0.186128 -0.319431 -0.597612 0.0407512 -0.0516112 0.0522354 -0.153672 0.0603754 0.0537106 0.0479173 0.107806
internal_weight=0 6424 5233 1191 208 140 5025 4466 559 135 99 1046 116 77 3420 1166 197 110 469 711 199 71 3400 376 3024 115 2909 64 2724 779
internal_count=7135 6424 5233 1191 208 140 5025 4466 559 135 99 1046 116 77 3420 1166 197 110 469 711 199 71 3400 376 3024 115 2909 64 2724 779
cat_boundaries=0 106 228 229 230 231 232
cat_threshold=0 0 0 0 0 0 0 0 0 0 0 0 0 0 0 0 0 0 0 0 0 0 0 0 0 0 0 0 0 0 0 0 0 0 0 0 0 0 0 0 0 0 0 0 0 0 0 0 0 64 2 0 139468800 41216 32 0 4096 0 0 0 16 0 0 0 0 0 0 0 0 0 0 0 0 0 0 0 0 2097152 0 0 0 0 0 0 0 0 0 0 0 0 0 0 0 0 0 0 0 0 2149580800 1092681856 168823040 3221226568 16384 0 0 1048576 0 0 0 0 0 0 0 0 0 0 0 0 0 0 0 0 0 0 0 0 0 0 0 0 0 0 0 0 0 0 0 0 0 0 0 0 0 0 0 0 0 0 0 0 0 0 0 0 0 0 0 0 0 0 0 0 0 0 0 0 0 1073741824 65536 32768 268435456 0 0 0 0 0 0 0 0 0 0 0 0 0 0 0 0 0 0 0 0 0 0 0 0 0 0 0 0 0 0 0 0 0 0 0 0 0 0 0 0 0 0 0 0 0 0 0 0 0 0 0 0 1024 0 20971776 2281701504 384 8 2 2 13
is_linear=0
shrinkage=0.05


Tree=13
num_leaves=31
num_cat=7
split_feature=19 6 25 25 8 1 23 24 22 15 25 22 24 24 23 11 4 10 3 24 22 4 24 12 15 24 25 25 25 3
split_gain=9100.38 6456.32 5330.49 4924.83 3891.07 4689.23 3370.49 3027.48 9321.27 5062.33 2721.12 2251.56 2849.29 3838.54 2427.08 2174.37 3107.4 2121.84 2031.07 3292.61 16430.3 2363.72 2151.6 2310.53 1939.38 1898.95 1616.08 2140.05 1575.06 1547.75
threshold=1.0000000180025095e-35 0 15.591000000000001 5903.9118333333345 1 2 1.5000000000000002 14.104758590660046 1.1910491137108059 6.3785476190476205 113.72166666666668 1.0587061870654284 14.671209132110031 12.743684925504533 1.5000000000000002 2021.5000000000002 3 34.016666666666673 4 14.53451985054444 1.5246700209037538 5 37.382373184275131 2012.5000000000002 10.295833333333336 31.415319572337356 546.28886363636377 38.100000000000009 1641.8900000000003 6
decision_type=2 9 2 2 9 9 2 2 2 2 2 2 2 2 2 2 9 2 9 2 2 9 2 2 2 2 2 2 2 9
left_child=1 -1 -2 4 11 10 26 8 9 -5 -6 14 13 -13 -3 -12 24 -8 19 20 21 -7 23 -20 -17 29 27 -4 -19 -18
right_child=2 3 6 7 5 18 17 -9 -10 -11 15 12 -14 -15 -16 16 25 28 22 -21 -22 -23 -24 -25 -26 -27 -28 -29 -30 -31
leaf_value=-0.13232499255259572 -0.71285991577165475 -0.19833901963686035 0.13980296336371323 -0.10799434519041394 -0.19120082954097095 0.39583930444258913 0.057580928872868843 0.12578652498181142 1.1511100734118374 0.71858887771765401 -0.12762779774883437 0.27089292147467214 0.19144880699641106 1.1464086976789294 0.23289350845327933 0.12574679202610448 0.086193603821422743 -0.16523783537273529 0.031542920818711753 0.016410461677529943 1.3584314139684042 0.054034664531303733 0.44846304198106135 -0.27140365939873917 0.59128734052181242 0.14803126341670411 -0.11579514237180098 -0.31442690015979569 -0.0085863893539232169 -0.13524740620441464
leaf_weight=560 35 59 29 59 318 65 409 316 32 27 315 31 141 21 73 62 105 326 1985 313 30 228 30 65 35 131 510 245 316 264
leaf_count=560 35 59 29 59 318 65 409 316 32 27 315 31 141 21 73 62 105 326 1985 313 30 228 30 65 35 131 510 245 316 264
internal_value=0 0.0267906 -0.101613 0.0459125 0.0297034 0.0156971 -0.0899543 0.206485 0.422591 0.151514 -0.0652575 0.193331 0.308117 0.624467 0.0401456 -0.021343 0.0347369 -0.0314274 0.0524169 0.129936 0.24397 0.129862 0.0279547 0.0219373 0.293725 -0.0155069 -0.168413 -0.266351 -0.0881321 -0.0735651
internal_weight=0 5265 1870 4705 4271 3946 1835 434 118 86 1230 325 193 52 132 912 597 1051 2716 636 323 293 2080 2050 97 500 784 274 642 369
internal_count=7135 5265 1870 4705 4271 3946 1835 434 118 86 1230 325 193 52 132 912 597 1051 2716 636 323 293 2080 2050 97 500 784 274 642 369
cat_boundaries=0 106 222 223 224 225 226 227
cat_threshold=0 0 0 0 0 0 0 0 0 0 0 0 0 0 0 0 0 0 0 0 0 0 0 0 0 0 0 0 0 0 0 0 0 0 0 0 0 0 0 0 0 0 0 0 0 0 0 0 134283264 0 0 2147483648 0 256 0 0 67112960 0 0 0 16 134217728 0 0 0 0 0 0 0 0 0 0 0 0 0 131072 0 0 0 0 0 0 0 0 0 0 0 0 0 0 0 0 0 0 0 0 0 0 2149580800 1075904640 219154688 2148040704 67125248 0 0 1048576 0 0 0 0 0 0 0 0 0 0 0 0 0 0 0 0 0 0 0 0 0 0 0 0 0 0 0 0 0 0 0 0 0 0 0 0 0 0 0 0 0 0 0 0 0 0 0 0 0 0 0 0 0 0 0 0 0 8 0 0 0 0 1 0 0 0 0 0 0 0 0 0 0 0 0 0 0 0 0 0 0 0 0 0 67108864 0 0 0 0 0 0 0 0 0 0 0 0 0 0 0 0 0 0 0 0 0 0 0 4112 33 1073807872 4195328 4 0 0 2048 4 1 12 2 16
is_linear=0
shrinkage=0.05


Tree=14
num_leaves=31
num_cat=9
split_feature=6 13 8 25 5 8 22 25 24 22 25 1 25 25 22 4 16 25 10 25 3 7 22 24 4 23 22 24 12 10
split_gain=8855.81 6872.88 4903.79 4327.75 3111.94 2811.51 4686.48 2699.72 5050.45 8469.22 3512.28 2877.49 2991.56 2027.58 1933.93 1782.44 4911.13 5485.35 1696.09 6449.97 1561.86 2658.94 2892.5 3899.31 2875.08 2611.7 2200.66 2130.46 2116.39 1424.71
threshold=0 81.121592150000012 1 10.25166666666667 2 3 2.6849543865209893 8802.3500000000022 14.104758590660046 1.1910491137108059 14289.780000000001 4 70.100000000000009 647.96441176470591 1.1910491137108059 5 2.28101909176551 556.18600000000004 56.048571428571435 70.100000000000009 6 7 2.1174123741308568 12.743684925504533 8 1.5000000000000002 3.0493400418075076 37.382373184275131 2012.5000000000002 24.962187500000002
decision_type=9 2 9 2 9 9 2 2 2 2 2 9 2 2 2 9 2 2 2 2 9 9 2 2 9 2 2 2 2 2
left_child=18 2 -2 -3 -4 6 -6 11 9 10 -9 12 -7 14 -5 16 17 -14 -1 -20 21 22 23 25 -23 -13 -26 28 -22 -10
right_child=1 3 4 13 5 7 -8 8 29 -11 -12 20 15 -15 -16 -17 -18 -19 19 -21 27 24 -24 -25 26 -27 -28 -29 -30 -31
leaf_value=-0.13320318174238599 0.35281002679218854 -0.82509222306311136 -0.091334286803337592 0.30599830157700042 0.12744179535427211 -0.18659035734103113 0.91057191681861882 0.73070816230028868 0.46350037381052972 1.2248803078024477 -0.037601300979069635 0.061612263956182717 0.085631876989551214 -0.029853286689088328 -0.1847480264439742 -0.024027671497542109 -0.00079109623124275132 1.2178427556343376 -1.113864441080527 -0.19590776278859093 0.037348713699921259 0.41985220797270401 0.021665352963927118 1.1312601871788501 -0.0077064928316698429 0.7231530183553696 0.40604367590376311 0.47481359044710802 -0.24442827507880505 0.02620032288312802
leaf_weight=523 110 20 477 21 81 258 25 21 20 27 51 37 23 710 456 1067 136 20 22 147 1947 52 44 20 393 25 35 27 69 271
leaf_count=523 110 20 477 21 81 258 25 21 20 27 51 37 23 710 456 1067 136 20 22 147 1947 52 44 20 393 25 35 27 69 271
internal_value=0 0.0118336 0.0366461 -0.0957057 0.0291164 0.0416445 0.285233 0.035347 0.161203 0.469687 0.186489 0.0236132 -0.0316217 -0.0834161 -0.163143 0.000466512 0.146474 0.612242 -0.175169 -0.315405 0.0549734 0.124922 0.323066 0.524191 0.0673779 0.328363 0.0261282 0.0334498 0.0277046 0.0562553
internal_weight=0 6443 5236 1207 5126 4649 106 4543 390 99 72 4153 1504 1187 477 1246 179 43 692 169 2649 606 126 82 480 62 428 2043 2016 291
internal_count=7135 6443 5236 1207 5126 4649 106 4543 390 99 72 4153 1504 1187 477 1246 179 43 692 169 2649 606 126 82 480 62 428 2043 2016 291
cat_boundaries=0 106 217 340 453 454 455 456 491 492
cat_threshold=0 0 0 0 0 0 0 0 0 0 0 0 0 0 0 0 0 0 0 0 0 0 0 0 0 0 0 0 0 0 0 0 0 0 0 0 0 0 0 0 0 0 0 0 0 0 0 0 0 64 2 0 139468800 41216 32 0 4096 0 0 0 16 0 0 0 0 0 0 0 0 0 0 0 0 0 0 0 0 2097152 0 0 0 0 0 0 0 0 0 0 0 0 0 0 0 0 0 0 0 0 2149580800 1090584704 59771144 3221226568 0 0 0 1048576 0 0 0 0 0 0 0 0 0 0 0 0 0 0 0 0 0 0 0 0 0 0 0 0 0 0 0 0 0 0 0 0 0 0 0 0 0 0 0 0 0 0 0 0 0 0 0 0 0 0 0 0 0 0 0 0 0 8 0 0 0 0 0 0 0 0 0 0 0 0 0 0 0 0 0 0 0 0 0 0 0 0 0 0 0 0 0 0 0 0 0 0 0 0 0 0 0 0 0 0 0 0 0 0 0 0 0 0 0 1025 82434 0 0 0 0 0 0 0 0 0 0 0 0 0 0 0 0 0 0 0 0 0 0 0 0 0 0 0 0 0 0 0 0 0 0 0 0 0 0 0 0 0 0 0 0 0 0 0 0 0 0 0 0 0 0 0 0 0 0 0 0 256 65536 0 16640 1 64 0 0 0 512 0 0 0 0 8388608 0 0 0 0 0 0 0 0 0 0 0 0 0 0 0 0 0 1610612736 0 0 0 0 0 0 0 0 0 0 0 0 0 0 0 0 0 0 0 0 0 0 0 0 0 2147483649 1073807376 2398336 528 65536 0 0 0 0 0 0 0 0 0 0 0 0 0 0 0 0 0 0 0 0 0 0 0 0 0 0 0 0 0 0 0 0 0 0 0 0 0 0 0 0 0 0 0 0 0 0 0 0 0 0 0 0 0 0 0 0 0 0 0 0 0 262144 0 0 0 0 0 0 0 0 0 0 0 0 0 0 0 0 0 0 0 0 0 0 67108864 0 0 0 0 0 0 0 0 0 0 0 0 0 0 0 0 0 0 0 0 0 0 0 0 131072 0 1024 4 4 1 12 0 0 0 0 0 0 0 0 0 0 0 0 0 0 0 0 0 0 0 0 0 0 0 0 0 0 0 0 0 0 0 0 0 0 2 2
is_linear=0
shrinkage=0.05


Tree=15
num_leaves=31
num_cat=6
split_feature=8 6 19 25 24 25 16 10 25 15 25 16 8 22 3 10 22 24 25 24 4 25 8 24 15 24 12 24 24 22
split_gain=10498.4 11030.2 6931.36 5945.54 4082 3855.66 11636.5 6691.09 3250.9 2403.63 2622.79 2308.63 2166.72 2396.76 2151.54 2610.6 2749.42 2559.4 7845.75 2034.17 2623.53 5877.46 1837.22 4577.64 1747.93 3843.38 4479.51 1647.91 9483.82 2302.3
threshold=0 1 1.0000000180025095e-35 8802.3500000000022 37.924543160289396 2061.3450000000007 7.0705816410412616 37.510344827586216 647.96441176470591 2.4228809523809529 50.846666666666678 2.3583259593864896 2 1.1910491137108059 3 23.346212121212123 2.9057809227470321 14.334916160495597 28643.483 28.385407012982238 4 429.80000000000007 5 29.478300698852276 4.6679487179487191 13.929943133759915 2018.5000000000002 9.6761301353466873 6.7041479322218187 1.3424771932604946
decision_type=9 9 2 2 2 2 2 2 2 2 2 2 9 2 9 2 2 2 2 2 9 2 9 2 2 2 2 2 2 2
left_child=9 3 5 4 19 7 14 12 11 -1 -11 -4 13 -3 15 -7 17 18 -17 20 21 -2 23 -14 27 -26 -27 28 -24 -30
right_child=1 2 8 -5 -6 6 -8 -9 -10 10 -12 -13 22 -15 -16 16 -18 -19 -20 -21 -22 -23 24 -25 25 26 -28 -29 29 -31
leaf_value=-0.11206629134393641 0.93144005321358392 -0.59405726486673716 -0.071928020503693998 1.1156312003731728 0.85631131783679693 0.64243906089855785 1.3048341558447907 -0.12246858403114014 -0.024144755692416264 -0.82230965961580693 -0.26285605302179593 -0.26399163997983971 0.12064705684056715 -0.044702822373559076 0.024096575956112552 0.038505967966509319 0.60009738003136592 0.019313428623090483 1.1804781866215526 0.017944636178158582 -0.080592207670211802 -0.0047559280693531035 0.05070101440090611 0.86650892572167015 0.6505106347171884 0.69024163135105665 -0.14377069216275559 0.00088895546187140427 0.25446314550936222 0.91148783216252927
leaf_weight=354 38 26 308 24 27 31 21 681 998 23 235 318 144 84 374 53 32 204 21 84 25 30 1418 24 38 21 69 1388 20 40
leaf_count=354 38 26 308 24 27 31 21 681 998 23 235 318 144 84 374 53 32 204 21 84 25 30 1418 24 38 21 69 1388 20 40
internal_value=0 0.0214507 0.00883809 0.355631 0.283652 0.039685 0.144761 0.0201211 -0.0801722 -0.193498 -0.31273 -0.169494 0.0497982 -0.160004 0.110689 0.199115 0.161206 0.110686 0.362579 0.196297 0.35739 0.518412 0.0574213 0.214435 0.0479264 0.228862 0.0508322 0.0400128 0.0767543 0.69248
internal_weight=0 6541 6313 228 204 4689 736 3953 1624 612 258 626 3272 110 715 341 310 278 74 177 93 68 3162 168 2994 128 90 2866 1478 60
internal_count=7153 6541 6313 228 204 4689 736 3953 1624 612 258 626 3272 110 715 341 310 278 74 177 93 68 3162 168 2994 128 90 2866 1478 60
cat_boundaries=0 112 214 327 328 329 440
cat_threshold=0 0 0 0 0 0 0 0 0 0 0 0 0 0 0 0 0 0 0 0 0 0 0 0 0 0 0 0 0 0 0 0 0 0 0 0 0 0 0 0 0 0 0 0 0 0 0 0 0 0 0 0 0 0 64 0 25165824 604061728 131073 0 0 0 0 0 0 67108864 0 0 0 0 0 0 0 0 0 0 0 0 0 0 0 0 0 0 0 16384 0 0 0 0 0 0 0 0 0 0 0 0 0 0 0 0 0 0 0 0 0 33554432 4718592 1082277924 35687680 4718592 0 0 0 0 0 0 0 0 0 0 0 0 0 0 0 0 0 0 0 0 0 0 0 0 0 0 0 0 0 0 0 0 0 0 0 0 0 0 0 0 0 0 0 0 0 0 0 0 65536 0 0 1057280 0 0 0 0 0 0 0 0 0 0 0 0 0 0 0 0 0 0 0 0 0 0 0 0 0 0 0 0 0 0 0 0 0 0 0 0 0 0 0 0 0 0 0 0 0 2147483648 1024 2097152 603979776 272391 0 0 0 0 0 0 0 0 0 0 0 0 0 0 0 0 0 0 0 0 0 0 0 0 0 0 0 0 0 0 0 0 0 0 0 0 0 0 0 0 0 0 0 0 0 0 0 0 0 0 0 0 0 0 0 0 0 0 0 0 0 262144 0 0 0 0 0 0 0 0 0 0 0 0 0 0 0 0 0 0 0 0 0 0 0 0 0 0 0 0 0 0 0 0 0 0 0 0 0 0 0 0 0 0 0 0 0 0 0 33554433 65536 0 65540 17 8 0 0 0 0 0 0 0 0 0 0 0 0 0 0 0 0 0 0 0 0 0 0 0 0 0 0 0 0 0 0 0 0 0 0 0 0 0 0 0 0 0 0 0 0 0 0 0 0 0 0 0 0 0 0 0 0 0 0 0 0 0 0 1 0 0 0 0 0 0 0 0 0 0 0 0 0 0 0 0 0 0 0 0 0 100663296 0 0 0 0 0 0 0 0 0 0 0 0 0 0 0 0 0 0 0 0 0 0 0 4096 1024 4
is_linear=0
shrinkage=0.05


Tree=16
num_leaves=31
num_cat=9
split_feature=8 6 14 16 23 11 13 24 8 21 8 10 24 24 15 1 11 24 16 24 0 24 12 4 11 10 9 3 16 15
split_gain=9428.44 10289.2 6777.74 10461.7 4159.26 3777.54 5854.15 3347.12 3234.95 2879.36 2349.44 2308.69 2252.26 3419.31 2024.24 1847.12 3651.25 10091 11093.3 1576.38 1334.08 1798.57 3302.12 1304.72 1257.96 1770.09 1221.36 1219.74 1697.84 2625.63
threshold=0 1 1.5000000000000002 7.3546668195868667 1.5000000000000002 2022.5000000000002 0.46000000000000002 37.382373184275131 2 3.0000000000000004 3 4.783125000000001 28.385407012982238 24.17741250938057 2.4228809523809529 4 2021.5000000000002 13.778404653952284 3.5338958480420999 33.004036093175678 5 16.077950178378817 2019.5000000000002 6 2023.5000000000002 59.732539682539688 7 8 3.5123983846515494 15.689903846153848
decision_type=9 9 2 2 2 2 2 2 9 2 9 2 2 2 2 9 2 2 2 2 9 2 2 9 2 2 9 9 2 2
left_child=14 5 3 8 10 7 -7 12 9 -3 -4 -11 13 -2 -1 20 26 -18 -19 -16 21 22 -10 -24 -12 -26 -17 28 29 -6
right_child=1 2 4 -5 27 6 -8 -9 15 11 24 -13 -14 -15 19 16 17 18 -20 -21 -22 -23 23 -25 25 -27 -28 -29 -30 -31
leaf_value=-0.11029435163492481 0.14154063854928547 0.058417569834025622 0.076244382411847278 1.114210783916971 0.028633079431485093 1.1768041006890275 0.13665251812587184 0.83476644896325602 -0.019688264531508574 0.88492980646590402 -0.18858805826671374 0.21909557321797246 -0.05623562141801372 0.88615145967120224 -0.37788229298100551 -0.099527776907556334 -0.060682051416773068 1.7910469355247916 0.21117770648002626 -0.1054008467956201 -0.13952432062181358 -0.048163452372022762 0.76323995627462871 0.27618614968589766 -0.12787497686998298 0.35620674829070387 0.051512668756610182 -0.074778978881187716 -0.10464630205278641 0.36767588853225358
leaf_weight=354 58 47 113 23 894 31 24 21 115 30 745 23 66 21 176 133 65 20 25 76 198 429 20 44 69 26 2582 447 217 61
leaf_count=354 58 47 113 23 894 31 24 21 115 30 745 23 66 21 176 133 65 20 25 76 198 429 20 44 69 26 2582 447 217 61
internal_value=0 0.020243 0.00826003 0.0511118 -0.0542528 0.348042 0.72292 0.244802 0.0445582 0.312116 -0.137127 0.595983 0.159359 0.339475 -0.184354 0.0362302 0.0553786 0.337782 0.913342 -0.295705 -0.0304347 0.00726653 0.140519 0.42839 -0.164777 0.00461055 0.0439368 -0.00547007 0.0214196 0.0502892
internal_weight=0 6547 6326 3754 2572 221 55 166 3731 100 953 53 145 79 606 3631 2825 110 45 252 806 608 179 64 840 95 2715 1619 1172 955
internal_count=7153 6547 6326 3754 2572 221 55 166 3731 100 953 53 145 79 606 3631 2825 110 45 252 806 608 179 64 840 95 2715 1619 1172 955
cat_boundaries=0 112 214 325 437 438 439 440 516 517
cat_threshold=0 0 0 0 0 0 0 0 0 0 0 0 0 0 0 0 0 0 0 0 0 0 0 0 0 0 0 0 0 0 0 0 0 0 0 0 0 0 0 0 0 0 0 0 0 0 0 0 0 0 0 0 0 0 64 0 25165824 604045344 131073 0 0 0 0 0 0 67108864 0 0 0 0 0 0 0 0 0 0 0 0 0 0 0 0 0 0 0 16384 0 0 0 0 0 0 0 0 0 0 0 0 0 0 0 0 0 0 0 0 0 33554432 4718592 1082277924 35687432 4718592 0 0 0 0 0 0 0 0 0 0 0 0 0 0 0 0 0 0 0 0 0 0 0 0 0 0 0 0 0 0 0 0 0 0 0 0 0 0 0 0 0 0 0 0 0 0 0 0 65536 0 0 1057280 0 0 0 0 0 0 0 0 0 0 0 0 0 0 0 0 0 0 0 0 0 0 0 0 0 0 0 0 0 0 0 0 0 0 0 0 0 0 0 0 0 0 0 0 0 2147483648 1024 0 604110848 272391 0 0 0 0 0 0 0 0 0 0 0 0 0 0 0 0 0 0 0 0 0 0 0 0 0 0 0 0 0 0 0 0 0 0 0 0 0 0 0 0 0 0 0 0 0 0 0 0 0 0 0 0 0 0 0 0 0 0 0 0 0 0 0 0 0 0 0 0 0 0 0 0 0 0 0 0 0 0 0 0 0 0 0 0 33554432 0 0 0 0 0 0 0 0 0 0 0 0 0 0 0 0 0 0 0 0 0 0 0 0 0 70 0 0 0 0 0 0 0 0 0 0 0 0 0 0 0 0 0 0 0 0 0 0 0 0 0 0 0 0 0 0 0 0 0 0 0 0 0 0 0 0 0 0 0 0 0 0 0 0 0 0 0 0 4096 0 0 0 0 0 0 0 0 0 0 0 0 0 0 33554432 0 0 0 0 0 0 0 0 0 0 0 0 0 0 0 0 0 0 0 0 0 0 0 0 0 0 0 0 0 0 0 0 0 0 0 0 0 0 0 67108864 268435456 1024 65536 1024 4 10 8 0 0 0 0 0 0 0 0 0 0 0 0 0 0 0 0 0 0 0 0 0 0 0 0 0 0 0 0 0 0 0 0 0 0 0 0 0 0 0 0 0 0 0 0 0 0 0 0 0 0 0 0 0 0 0 0 0 0 0 0 0 0 0 0 0 0 0 0 0 0 0 0 0 0 0 2097152 5
is_linear=0
shrinkage=0.05


Tree=17
num_leaves=31
num_cat=6
split_feature=8 7 6 14 25 22 12 25 22 25 14 11 22 24 8 10 22 7 15 14 25 10 23 10 6 22 24 24 22 10
split_gain=8695.78 10553.6 6792.23 6837.8 5726.94 5008.7 6775.88 4994.38 9388.61 4750.41 4786.29 3569.21 3167.78 34526.1 2992.06 3110.26 6253.71 2998.73 2737.46 2216.28 2178.39 1757.51 1547.09 1677.4 1430.89 1694.6 1354.82 1475.64 1466.11 1664.88
threshold=0 1 2 1.5000000000000002 574.67142857142869 2.5761742564983572 2011.5000000000002 36314.479153846165 1.3424771932604946 137.73504545454549 2.5000000000000004 2019.5000000000002 3.3554855843394331 10.506376698686063 3 4.783125000000001 2.456543833381394 4 4.4925945378151271 2.5000000000000004 129.46250000000001 40.011111111111113 1.5000000000000002 58.334429824561411 5 1.4528904613735161 13.58098170740204 13.854454360593877 1.4528904613735161 70.512500000000017
decision_type=9 9 9 2 2 2 2 2 2 2 2 2 2 2 9 2 2 9 2 2 2 2 2 2 9 2 2 2 2 2
left_child=19 9 5 7 11 6 -3 12 -9 -2 -11 -5 14 -14 15 16 -4 18 24 -1 -21 -13 -6 -24 25 -16 28 -28 -19 -30
right_child=1 2 3 4 22 -7 -8 8 -10 10 -12 21 13 -15 17 -17 -18 26 -20 20 -22 -23 23 -25 -26 -27 27 -29 29 -31
leaf_value=-0.10222326014031712 -0.07805557227134706 0.2568586164484582 0.08898868057480519 0.43068674317747357 -0.068253588247758665 0.06583996524705607 1.3632174517512323 1.266275942810656 0.055090213535974424 1.1333567985257991 0.37659759900222223 -0.10573919471747313 2.1889098712801931 -0.081283526328726888 0.02927903785513571 -0.1013968803201403 0.97919961661100396 -0.083588575462716211 0.51016811555018649 -0.69780575224819286 -0.24245709835141194 -0.2452533243102932 0.067520506243059539 -0.082476993975776042 0.078543450159682254 -0.13921578438463492 0.40730731401237708 -0.019409667768880076 -0.12555128861876094 -0.66305058515071869
leaf_weight=351 25 31 47 25 587 51 25 24 48 37 48 455 20 103 897 35 34 345 32 30 211 448 811 242 1357 179 21 575 34 25
leaf_count=351 25 31 47 25 587 51 25 24 48 37 48 455 20 103 897 35 34 345 32 30 211 448 811 242 1357 179 21 575 34 25
internal_value=0 0.0191893 0.0105298 0.00356189 -0.059378 0.388042 0.750769 0.0463758 0.458819 0.483829 0.70601 -0.15864 0.0383586 0.287854 0.0297889 0.269257 0.462657 0.0209346 0.0505204 -0.179357 -0.29914 -0.174956 -0.00321046 0.0330481 0.0446825 0.00123727 -0.0517724 -0.00437434 -0.122978 -0.353305
internal_weight=0 6561 6451 6344 2568 107 56 3776 72 110 85 928 3704 123 3581 116 81 3465 2465 592 241 903 1640 1053 2433 1076 1000 596 404 59
internal_count=7153 6561 6451 6344 2568 107 56 3776 72 110 85 928 3704 123 3581 116 81 3465 2465 592 241 903 1640 1053 2433 1076 1000 596 404 59
cat_boundaries=0 112 190 292 403 465 548
cat_threshold=0 0 0 0 0 0 0 0 0 0 0 0 0 0 0 0 0 0 0 0 0 0 0 0 0 0 0 0 0 0 0 0 0 0 0 0 0 0 0 0 0 0 0 0 0 0 0 0 0 0 0 0 0 0 64 0 25165824 604045344 131073 0 0 0 0 0 0 67108864 0 0 0 0 0 0 0 0 0 0 0 0 0 0 0 0 0 0 0 16384 0 0 0 0 0 0 0 0 0 0 0 0 0 0 0 0 0 0 0 0 0 33554432 4718592 1084375072 39881984 4718592 0 0 0 0 0 0 0 0 0 0 0 0 0 0 0 0 0 0 0 0 0 0 0 0 0 0 0 0 0 0 0 0 0 0 0 16777216 0 0 0 0 0 0 0 0 0 0 0 0 0 0 0 0 0 0 0 0 0 0 0 0 0 0 0 0 0 0 0 0 0 0 0 0 0 0 256 67108864 8421394 16384 0 0 0 0 0 0 0 0 0 0 0 0 0 0 0 0 0 0 0 0 0 0 0 0 0 0 0 0 0 0 0 0 0 0 0 0 0 0 0 0 0 0 0 0 0 0 0 0 65536 0 0 1049088 0 0 0 0 0 0 0 0 0 0 0 0 0 0 0 0 0 0 0 0 0 0 0 0 0 0 0 0 0 0 0 0 0 0 0 0 0 0 0 0 0 0 0 0 0 2147483648 1024 0 536870912 2 0 0 0 0 0 0 0 0 0 0 0 0 0 0 0 0 0 0 0 0 0 0 0 0 0 0 0 0 0 0 0 0 0 0 0 0 0 0 0 0 0 0 0 0 0 0 0 0 0 0 0 0 0 0 0 0 0 0 0 0 0 0 0 0 0 0 0 0 0 0 0 0 0 0 0 0 0 0 0 0 0 0 0 0 33554432 0 0 0 0 0 0 0 0 0 0 0 0 0 0 0 0 0 0 0 0 0 0 0 4096 1 6 0 0 0 0 0 0 0 0 0 0 0 0 0 0 0 0 0 0 0 0 0 0 0 0 0 0 0 0 0 0 0 0 0 0 2 0 0 0 0 0 0 0 0 0 0 0 0 0 536870912 0 0 0 0 0 0 0 0 134217728 0 0 0 2147483648 0 0 0 0 0 0 0 0 0 0 0 0 0 0 0 0 0 0 0 0 0 0 0 0 0 0 0 0 0 0 0 0 0 0 0 0 0 0 0 0 0 0 0 0 0 0 0 0 0 0 0 0 0 0 0 0 0 0 0 0 0 134217728 0 0 0 0 0 0 0 0 0 0 0 0 0 262144 0 0 0 0 0 0 512
is_linear=0
shrinkage=0.05


Tree=18
num_leaves=31
num_cat=5
split_feature=8 6 14 16 25 22 25 8 25 16 22 16 11 16 22 22 24 16 3 21 23 15 15 4 23 24 23 15 15 25
split_gain=8254.33 7933.92 6067.39 10484 5132.62 10411.1 4374.26 3236.59 5492.42 3276.4 4978.29 2827.33 2982.12 2469.26 2756.24 3574.21 11845.5 2256.85 2070.39 2237.82 3500.21 2058.68 2597.82 1917.11 1682.6 1841.89 1580.75 1686.92 3291.8 1436.17
threshold=0 1 1.5000000000000002 7.3546668195868667 39377.216666666674 1.3424771932604946 574.67142857142869 2 4528.2844802631589 2.953765646497537 2.456543833381394 2.6145604270213467 2022.5000000000002 2.28101909176551 2.456543833381394 2.7730984193296933 31.214083207544707 5.7036461506223901 3 1.0000000180025095e-35 1.5000000000000002 7.4955357142857153 10.295833333333336 4 1.5000000000000002 29.348645342709833 1.5000000000000002 2.2406951286261636 1.993853980986334 2402.0262810457521
decision_type=9 9 2 2 2 2 2 9 2 2 2 2 2 2 2 2 2 2 9 2 2 2 2 9 2 2 2 2 2 2
left_child=7 -2 3 4 17 -6 11 8 9 10 -1 12 21 14 18 16 -16 23 19 20 -9 -4 -23 -3 25 -17 -8 28 -28 -15
right_child=1 2 6 -5 5 -7 26 13 -10 -11 -12 -13 -14 29 15 24 -18 -19 -20 -21 -22 22 -24 -25 -26 -27 27 -29 -30 -31
leaf_value=0.062046312218213953 -0.22950717403371446 -0.04919858992937317 -0.048289455709196488 1.1023917774791303 1.3858469894954137 0.046745356481443068 -0.08524223858527849 0.19855438300198125 1.1445414786040782 -0.28639128167668115 0.94648736818478663 -0.26509205459254326 -0.25910496211204775 -0.10896843585584846 0.020133503983097694 0.64600900706968145 1.5371571827341211 -0.16542728381328189 0.042547931698014019 0.12879422877993538 1.0469656284153463 0.72476079534916649 0.0045064448348937497 0.052543348178031274 -0.022561534304940511 0.10850899505454142 0.082747653603102225 -0.010768328379894304 0.7473959159283412 0.10006037311145553
leaf_weight=41 425 586 269 23 21 47 528 31 20 23 26 362 156 210 31 28 22 154 609 107 20 21 31 2206 63 37 165 735 21 135
leaf_count=41 425 586 269 23 21 47 528 31 20 23 26 362 156 210 31 28 22 154 609 107 20 21 31 2206 63 37 165 735 21 135
internal_value=0 -0.0241604 -0.0073718 0.0389395 0.0308242 0.460291 -0.0688758 0.110699 0.362137 0.228506 0.405262 -0.15973 -0.0797706 0.0866928 0.129046 0.304549 0.649841 0.0209112 0.0876306 0.243306 0.531265 0.00738259 0.295378 0.0311892 0.161576 0.340047 -0.0162691 0.0232725 0.157789 -0.0271746
internal_weight=0 5750 5325 3037 3014 68 2288 1403 110 90 67 839 477 1293 948 181 53 2946 767 158 51 321 52 2792 128 65 1449 921 186 345
internal_count=7153 5750 5325 3037 3014 68 2288 1403 110 90 67 839 477 1293 948 181 53 2946 767 158 51 321 52 2792 128 65 1449 921 186 345
cat_boundaries=0 112 215 326 327 328
cat_threshold=0 0 0 0 0 0 0 0 0 0 0 0 0 0 0 0 0 0 0 0 0 0 0 0 0 0 0 0 0 0 0 0 0 0 0 0 0 0 0 0 0 0 0 0 0 0 0 0 0 0 0 0 4096 134217760 32768 1 1075855360 1076102273 268435456 0 0 0 1 0 0 0 0 33554432 0 0 0 0 0 0 0 0 0 0 0 0 0 0 0 0 100663296 524288 0 0 0 0 0 0 0 0 0 0 0 0 0 0 0 0 0 0 0 0 0 0 16 536872065 16797766 1024 0 0 0 0 0 0 0 0 0 0 0 0 0 0 0 0 0 0 0 0 0 0 0 0 0 0 0 0 0 0 0 0 0 0 0 0 0 0 0 0 0 0 0 0 0 0 0 0 0 0 0 8192 135266304 0 0 0 0 0 0 0 0 0 0 0 0 0 0 0 0 0 0 0 0 0 0 393216 0 2097152 0 0 0 0 0 0 0 0 0 0 0 0 0 0 0 0 0 0 0 0 2149581824 1359020032 84943104 2433240072 67108864 0 0 0 0 0 0 0 0 0 0 0 0 0 0 0 0 0 0 0 0 0 0 0 0 0 0 0 0 0 0 0 0 0 0 0 0 0 0 0 0 0 0 0 0 0 0 0 0 0 0 0 0 0 0 32768 0 1073741824 0 0 0 0 0 0 0 0 0 0 0 0 0 0 0 0 0 0 0 0 0 0 0 0 0 0 0 0 0 0 0 0 0 0 0 0 0 0 0 0 0 0 0 0 0 0 0 0 0 0 0 0 536871936 66 5 1
is_linear=0
shrinkage=0.05


Tree=19
num_leaves=31
num_cat=6
split_feature=7 5 8 24 14 16 13 14 24 25 22 25 24 13 10 5 24 1 15 16 25 24 20 3 15 25 25 23 10 25
split_gain=8174.91 9124.43 8332.9 6078.59 6025.45 8598.35 5209.81 5947.07 5379.38 4435.7 7486.73 3701 3380.73 3868.28 2823.9 2672.11 3515.49 2421.99 3473.34 2182.94 4930.78 2063.92 3054.35 1695.5 2263.79 2153.4 3800.58 1577.32 1601.54 1467.71
threshold=0 1 2 13.929943133759915 1.5000000000000002 7.3546668195868667 90.135818066950023 1.5000000000000002 14.334916160495597 36314.479153846165 1.3424771932604946 574.67142857142869 34.227655029037074 112.40204624770001 40.011111111111113 3 33.29326227988853 4 0.94692460317460336 1.5630716668720204 390.98214285714295 33.674230708379334 1.0000000180025095e-35 5 3.7995158730158738 286.65000000000003 107.63875 1.5000000000000002 58.334429824561411 23727.963409090913
decision_type=9 9 9 2 2 2 2 2 2 2 2 2 2 2 2 9 2 9 2 2 2 2 2 9 2 2 2 2 2 2
left_child=3 19 6 -1 5 9 7 8 -3 15 -11 14 -5 -14 23 16 -4 -17 -19 -2 21 22 -21 24 -6 26 -26 -13 29 -29
right_child=1 2 4 12 11 -7 -8 -9 -10 10 -12 27 13 -15 -16 17 -18 18 -20 20 -22 -23 -24 -25 25 -27 -28 28 -30 -31
leaf_value=1.004930763406058 -0.10087128325532589 -0.20155569868891138 0.1313661399758374 0.02687527745085604 -0.080508599849032969 0.96746510219573967 -0.1628997429907322 1.3435987505251947 0.77736327432923857 1.1242254605293274 0.064503914367407558 -0.074623360333016517 0.98361187535524375 0.094919288282593106 -0.22441439135363589 -0.066171660336991706 0.76060117763280877 0.03408117155054053 0.67957618350074411 -0.49104356470293009 -0.17670637793591804 -0.24866051132028755 -1.2723192550919273 -0.20340838486215837 0.004125585202127695 -0.11024709820747376 0.70721292695080917 0.033090884893068245 -0.085944298859373935 0.22443680490951168
leaf_weight=30 271 23 198 85 242 25 25 23 36 25 50 603 25 24 456 683 25 2738 21 29 211 22 22 122 40 40 37 665 239 118
leaf_count=30 271 23 198 85 242 25 25 23 36 25 50 603 25 24 456 683 25 2738 21 29 211 22 22 122 40 40 37 665 239 118
internal_value=0 -0.00614428 0.0107572 0.340809 0.00302029 0.0432757 0.428885 0.661611 0.395751 0.037098 0.417744 -0.0561255 0.217558 0.548334 -0.135266 0.0293085 0.193243 0.0180736 0.0389943 -0.198802 -0.29925 -0.65345 -0.828064 -0.0507505 0.00660958 0.187368 0.341973 -0.0104921 0.0273467 0.0619272
internal_weight=0 6989 6434 164 6327 3765 107 82 59 3740 75 2562 134 49 937 3665 223 3442 2759 555 284 73 51 481 359 117 77 1625 1022 783
internal_count=7153 6989 6434 164 6327 3765 107 82 59 3740 75 2562 134 49 937 3665 223 3442 2759 555 284 73 51 481 359 117 77 1625 1022 783
cat_boundaries=0 78 200 312 435 436 437
cat_threshold=0 0 0 0 0 0 0 0 0 0 0 0 0 0 0 0 0 0 0 0 0 0 0 0 0 0 0 0 0 0 0 0 0 0 0 16777216 0 0 0 0 0 0 16 0 0 0 0 0 0 0 0 0 0 0 0 0 0 0 0 0 0 0 0 0 0 0 0 0 0 0 0 0 0 0 0 67239936 32786 16384 0 0 0 0 0 0 0 0 0 0 0 0 0 0 0 0 0 0 0 0 0 0 0 0 0 0 0 0 0 0 0 0 0 0 0 0 0 0 0 0 0 0 0 0 0 0 0 0 0 0 0 0 0 0 0 0 0 0 0 0 0 65536 536870912 268435456 33297 0 0 0 0 0 0 0 0 0 0 0 0 0 0 0 0 0 0 0 0 0 0 0 0 0 0 0 0 0 0 0 0 0 0 0 0 0 0 0 0 0 0 0 0 0 0 0 0 0 0 0 0 0 2147746305 4259856 2484963344 33625856 0 0 0 0 0 0 0 0 0 0 0 0 0 0 0 0 0 0 0 0 0 0 0 0 0 0 0 0 0 0 0 0 0 0 0 0 0 0 0 0 0 0 0 0 0 0 0 0 0 0 0 0 0 0 0 1 1073741824 0 0 0 0 0 0 0 0 0 0 0 0 0 0 0 0 0 0 0 0 0 0 0 0 0 0 0 0 0 0 0 0 0 0 0 0 0 0 0 0 0 0 0 0 0 0 0 0 0 0 0 0 1024 66 1024 0 0 0 0 0 0 0 0 0 0 0 0 0 0 0 0 0 0 0 0 0 0 0 0 0 0 0 0 0 0 0 0 0 0 0 0 0 0 0 0 0 0 0 0 0 0 0 0 0 0 0 0 0 0 0 0 0 0 0 0 0 0 0 0 524288 0 0 0 0 0 0 0 0 0 8388608 0 0 0 0 0 0 0 0 0 0 0 0 0 0 0 0 0 536870912 0 0 0 0 0 0 0 0 0 0 0 0 0 0 0 0 0 0 0 0 0 0 0 0 4196352 16777216 0 134352928 16386 65568 4 20
is_linear=0
shrinkage=0.05


Tree=20
num_leaves=31
num_cat=7
split_feature=5 8 24 16 13 24 25 25 25 12 22 14 8 12 24 22 15 25 15 25 15 25 24 5 4 1 0 24 15 22
split_gain=9043.16 6078.11 5169.99 4842.04 4162.6 9076.87 2779.56 2678.77 8370 3541.91 2071.59 1794.66 1726.19 1863.83 2817.7 6622.95 1810.05 1715.74 1680.12 2555.88 1589.83 5425.15 2835.08 1419.8 1538.58 1652.72 1525.54 8622.12 2518.39 1347.17
threshold=0 1 32.586523088699373 7.3546668195868667 99.91500000000002 35.477510142608224 241.91000000000003 31131.051846153849 41844.788461538468 2015.5000000000002 2.9057809227470321 3.5000000000000004 2 2020.5000000000002 16.353266441493403 1.4528904613735161 31.168055555555558 129.46250000000001 27.805555555555557 1120.1785714285718 2.135803035114181 308.65873563218395 33.196978323806938 3 4 5 6 13.292143905540355 10.295833333333336 3.0493400418075076
decision_type=9 9 2 2 2 2 2 2 2 2 2 2 9 2 2 2 2 2 2 2 2 2 2 9 9 9 9 2 2 2
left_child=20 4 3 7 5 10 29 12 -9 -10 11 -2 -3 18 15 16 -15 -16 23 -20 -1 22 -22 24 25 -14 27 -26 -29 -4
right_child=1 2 6 -5 -6 -7 -8 8 9 -11 -12 -13 13 14 17 -17 -18 -19 19 -21 21 -23 -24 -25 26 -27 -28 28 -30 -31
leaf_value=-0.11312246350385924 0.049024222333203346 -0.11755446405212085 -0.15734175084967561 0.67299969002347571 -0.12291984233473029 1.347542514313351 -0.037108099320994473 0.89611436550298507 -0.10378341371210936 0.45281355829002001 0.69287109402534763 0.46621160575666948 -0.034488026557430149 -0.0099082034419303491 -0.30325616130398381 0.9693007420251768 0.44611792723017357 0.096743676279272356 -0.43120703585445885 0.049603705610132831 -0.93707831978797929 -0.15705992305541741 -0.23042366450483148 0.001944075387963043 1.1612872986495495 0.41386269579534646 0.020596288406492212 0.020106558833175747 0.59638418612026034 -0.41307614224572337
leaf_weight=345 85 215 304 29 49 22 895 36 107 39 23 37 31 73 36 30 31 105 52 59 40 221 22 2878 20 61 937 195 21 62
leaf_count=345 85 215 304 29 49 22 895 36 107 39 23 37 31 73 36 30 31 105 52 59 40 221 22 2878 20 61 937 195 21 62
internal_value=0 0.015073 0.00580216 0.0288151 0.269804 0.401191 -0.0845792 0.0250227 0.213269 0.0448966 0.257606 0.175548 0.0178007 0.0244319 0.150641 0.314816 0.126023 -0.00538394 0.0163305 -0.175641 -0.182273 -0.273013 -0.68633 0.0214739 0.0653739 0.262788 0.0504478 0.161263 0.0761336 -0.200663
internal_weight=0 6432 6216 4955 216 167 1261 4926 182 146 145 122 4744 4529 275 134 104 141 4254 111 628 283 62 4143 1265 92 1173 236 216 366
internal_count=7060 6432 6216 4955 216 167 1261 4926 182 146 145 122 4744 4529 275 134 104 141 4254 111 628 283 62 4143 1265 92 1173 236 216 366
cat_boundaries=0 122 234 347 468 469 470 471
cat_threshold=0 0 0 0 0 0 0 0 0 0 0 0 0 0 0 0 0 0 0 0 0 0 0 0 0 0 0 0 0 0 0 0 0 0 0 0 0 0 0 0 0 0 0 0 0 0 0 0 0 0 0 0 0 0 0 0 0 0 0 0 0 0 0 134250496 2140801 67108868 0 0 0 0 0 0 0 0 0 0 0 0 0 0 0 0 0 0 0 0 0 0 0 0 0 0 0 0 0 0 0 0 0 0 0 0 0 0 0 0 0 0 0 0 0 0 0 0 0 0 0 4194304 17039873 4194576 471635968 33637376 0 0 0 0 0 0 0 0 0 0 0 0 0 0 0 0 0 0 0 0 0 0 0 0 0 0 0 0 0 0 0 0 0 0 0 0 0 0 0 0 0 0 0 0 0 0 0 0 0 0 0 0 0 0 8388608 65537 1073741828 1073751040 0 0 0 0 0 0 0 0 0 0 0 0 0 0 0 0 0 0 0 0 0 0 0 0 0 0 0 0 0 0 0 0 0 0 0 0 0 0 0 0 0 0 0 0 0 0 0 0 0 0 268435456 1152 1026 1024 0 0 0 0 0 0 0 0 0 0 0 0 0 0 0 0 0 0 0 0 0 0 0 0 0 0 0 0 0 0 0 0 0 0 0 0 0 0 0 0 0 0 0 0 0 0 0 0 0 0 0 0 0 0 0 16777216 0 536870912 0 0 0 262144 0 0 0 67108864 0 0 0 0 0 0 0 0 0 0 0 0 0 0 0 0 0 0 0 0 0 0 0 0 0 0 0 0 0 0 0 0 0 0 0 0 0 0 0 0 0 0 524304 4 4 4194304 4 0 0 0 0 0 0 0 0 0 0 0 0 0 0 0 0 0 0 0 0 0 0 0 0 0 0 0 0 0 0 0 0 0 0 0 0 0 0 0 0 0 0 0 0 0 0 0 0 0 0 0 0 0 0 0 0 0 0 0 128 0 0 0 0 268435456 0 0 0 0 512 0 0 0 0 8388608 0 0 0 0 0 0 0 0 0 0 0 0 0 0 0 0 0 536870912 0 0 0 0 0 0 512 0 0 0 0 0 0 0 0 0 0 0 0 0 0 0 0 0 0 2147483648 65536 6291460 1 4 18
is_linear=0
shrinkage=0.05


Tree=21
num_leaves=31
num_cat=4
split_feature=5 8 19 22 16 14 25 16 11 23 25 10 25 7 25 10 25 14 25 16 5 25 16 16 10 25 25 22 22 10
split_gain=8126.1 5894.4 4192.2 5239.17 7214.85 3935.78 4480.88 8558.76 2923.24 2859.48 3533.09 10290 7296.86 2788.49 2571.77 2157.71 5446.1 1951.09 1833.46 2080.76 1747.7 1843.38 2011.62 3962.54 2702.66 2684.37 1876.59 1788.24 5053.68 1643.08
threshold=0 1 0.87017542624999999 2.456543833381394 2.6499642387299822 10.500000000000002 1817.2437500000001 7.0705816410412616 2023.5000000000002 1.5000000000000002 31131.051846153849 52.114825581395358 63524.422500000008 2 107.63875 44.595454545454551 70.100000000000009 3.5000000000000004 63524.422500000008 5.5190180782407134 3 261.84166666666675 2.0772728031854668 1.7511086760447392 68.637619047619069 27.664532019704438 420.49204545454552 1.228271916690697 1.8414491692338875 86.233333333333348
decision_type=9 9 2 2 2 2 2 2 2 2 2 2 2 9 2 2 2 2 2 2 9 2 2 2 2 2 2 2 2 2
left_child=15 2 3 17 -5 6 13 8 9 -8 -11 12 -12 -3 -7 -1 -17 -2 -13 -20 -15 22 23 -22 25 -24 27 -23 -29 -26
right_child=1 5 -4 4 -6 14 7 -9 -10 10 11 18 -14 20 -16 16 -18 -19 19 -21 21 26 24 -25 29 -27 -28 28 -30 -31
leaf_value=-0.10608809911297817 0.069728525747062578 0.033388379648890555 -0.11603816916357797 1.2818876138539055 0.16055091596566715 -0.31739932528386516 -0.050149129762846446 1.0739511951156284 0.61996692453439417 0.082935765200126618 1.5534577251672745 -0.23584309976015772 0.27213266327977181 0.13736705735889304 -0.058540935664502691 -1.0856884372234343 -0.22129326533889626 0.54021583432952569 -0.1081310085952282 0.60447346348138087 -0.086567682330458376 -0.25639700428360984 -0.75291003151373426 0.48425661695655436 0.13289770436974674 -0.24910516693515886 -0.041460454586950198 0.9674232842028142 0.092142625639247216 -0.22400268595665696
leaf_weight=418 83 2583 53 32 26 108 280 23 26 488 25 35 20 109 860 20 205 30 20 21 609 21 33 32 65 133 524 20 94 64
leaf_count=418 83 2583 53 32 26 108 280 23 26 488 25 35 20 109 860 20 205 30 20 21 609 21 33 32 65 133 524 20 94 64
internal_value=0 0.0144929 0.260849 0.392916 0.779219 0.00517607 0.022341 0.121329 0.0973835 0.0820999 0.142904 0.38476 0.98398 0.000682216 -0.0874218 -0.170634 -0.298128 0.194637 0.0299581 0.256862 -0.0488048 -0.0623041 -0.107797 -0.058071 -0.215847 -0.349259 0.0013661 0.167597 0.245701 -0.0441692
internal_weight=0 6417 224 171 58 6193 5225 938 915 889 609 121 45 4287 968 643 225 113 76 41 1704 1595 936 641 295 166 659 135 114 129
internal_count=7060 6417 224 171 58 6193 5225 938 915 889 609 121 45 4287 968 643 225 113 76 41 1704 1595 936 641 295 166 659 135 114 129
cat_boundaries=0 122 235 316 442
cat_threshold=0 0 0 0 0 0 0 0 0 0 0 0 0 0 0 0 0 0 0 0 0 0 0 0 0 0 0 0 0 0 0 0 0 0 0 0 0 0 0 0 0 0 0 0 0 0 0 0 0 0 0 0 0 0 0 0 0 0 0 0 0 0 0 134250496 2140801 67108864 0 0 0 0 0 0 0 0 0 0 0 0 0 0 0 0 0 0 0 0 0 0 0 0 0 0 0 0 0 0 0 0 0 0 0 0 0 0 0 0 0 0 0 0 0 0 0 0 0 0 0 4194304 17039873 4194576 471635972 33637376 0 0 0 0 0 0 0 0 0 0 0 0 0 0 0 0 0 0 0 0 0 0 0 0 0 0 0 0 0 0 0 0 0 0 0 0 0 0 0 0 0 0 0 0 0 0 0 0 0 0 0 0 0 0 8388608 65537 1073741828 1073742848 0 0 0 0 0 0 0 0 0 0 0 0 0 0 0 0 0 0 0 0 0 0 0 0 0 0 0 0 0 0 0 0 0 0 0 0 0 0 0 0 0 0 0 0 0 0 0 0 0 0 0 1152 1073741826 1024 65536 0 0 0 0 0 0 0 0 0 0 0 0 0 0 0 0 0 0 0 0 0 0 0 0 0 0 0 0 0 0 0 0 0 0 2 16777216 0 0 0 0 0 0 0 0 0 0 0 0 536870912 0 0 0 0 0 0 0 0 0 0 0 0 2147483648 0 0 0 0 0 0 0 0 0 0 0 0 0 0 0 0 0 0 20 0 0 0 0 0 0 0 0 0 0 0 0 0 0 0 0 0 0 0 0 0 0 0 0 0 0 0 0 0 0 0 0 0 0 0 0 0 0 0 0 0 0 0 0 0 0 0 0 0 0 0 0 0 0 0 0 0 0 0 0 0 0 0 0 0 0 0 0 0 512 0 0 0 0 0 0 0 0 0 0 0 0 0 0 0 0 0 0 0 0 0 0 0 0 0 0 0 0 0 0 0 0 0 0 0 0 0 0 0 0 0 0 0 0 0 0 0 0 2147483648 1073742848 2097152 258 0 0 0 256
is_linear=0
shrinkage=0.05


Tree=22
num_leaves=31
num_cat=6
split_feature=6 6 5 24 16 24 5 25 25 12 24 22 11 25 25 25 22 3 23 12 12 25 12 24 24 4 24 22 16 24
split_gain=7676.19 5124.44 4272.21 3962.26 6052.2 2902.08 2817.55 2354.58 7682.57 3511.79 2315.02 2969.11 2184.27 1777.84 1941.88 1775.54 2445.44 1651.1 1635.35 1381.69 2062.29 2852.18 1702.7 2919.16 4783.92 2512.31 1602.59 1277.78 1271.11 1264.68
threshold=0 1 2 32.586523088699373 7.3546668195868667 10.506376698686063 3 31131.051846153849 41844.788461538468 2015.5000000000002 21.112762341475285 1.3650151631262493 2018.5000000000002 186.76500000000004 471.93500000000006 957.51641304347834 3.0493400418075076 4 1.0000000180025095e-35 2020.5000000000002 2014.5000000000002 10.25166666666667 2021.5000000000002 16.508503386594395 13.507447223207363 5 31.977463228064305 3.3554855843394331 3.37162301389096 29.042061961728422
decision_type=9 9 9 2 2 2 9 2 2 2 2 2 2 2 2 2 2 9 2 2 2 2 2 2 2 9 2 2 2 2
left_child=17 5 -3 4 6 -2 10 18 -9 -10 11 -4 29 -14 -15 16 -5 -1 -8 20 -20 -22 23 24 25 -21 27 -23 -24 -7
right_child=1 2 3 15 -6 12 7 8 9 -11 -12 -13 13 14 -16 -17 -18 -19 19 22 21 26 28 -25 -26 -27 -28 -29 -30 -31
leaf_value=-0.10408099344638469 0.77880998384207489 -0.1482618377353194 0.24771328220143915 -0.081732257575664533 0.8107541364431381 0.2773092290546213 0.32445792715216792 0.89209332673838648 -0.1079077618325701 0.4732697156923158 0.036298757698386912 0.9819028644334703 -0.32701544382355435 0.58530559512701907 0.058885228350152113 -0.002532943540166855 -0.34953212391073801 -0.3036635039241769 0.024775785431450523 0.57614293942848849 -0.49301834492063201 -0.069999717096837041 -0.14210782553755533 0.018423640113099514 1.1113810512423516 -0.074201674262682593 0.34225472273448343 0.27429121216492997 0.22569157257676126 0.77572549576405436
leaf_weight=276 24 422 40 519 25 35 43 33 101 35 48 21 22 22 86 553 102 204 3347 27 37 718 76 83 20 33 26 28 34 20
leaf_count=276 24 422 40 519 25 35 43 33 101 35 48 21 22 22 86 553 102 204 3347 27 37 718 76 83 20 33 26 28 34 20
internal_value=0 0.0117561 0.00357534 0.0145768 0.0348346 0.249581 0.0307508 0.0244669 0.207721 0.04166 0.271183 0.500467 0.194415 0.0826655 0.166119 -0.0676934 -0.125719 -0.19337 0.0175963 0.0146171 0.00745954 -0.0641813 0.12358 0.226159 0.441685 0.218453 -0.0436283 -0.0570773 -0.0284244 0.458552
internal_weight=0 6580 6371 5949 4775 209 4750 4641 169 136 109 61 185 130 108 1174 621 480 4472 4429 4156 809 273 163 80 60 772 746 110 55
internal_count=7060 6580 6371 5949 4775 209 4750 4641 169 136 109 61 185 130 108 1174 621 480 4472 4429 4156 809 273 163 80 60 772 746 110 55
cat_boundaries=0 102 206 329 451 452 453
cat_threshold=0 0 0 0 0 0 0 0 0 0 0 0 0 0 0 0 0 0 0 0 0 0 0 0 0 0 0 0 0 0 0 0 0 0 0 0 0 0 0 0 0 0 0 0 0 0 0 0 134217760 0 2 0 138412032 8448 32 0 0 0 0 0 0 0 0 0 0 0 0 0 0 0 0 0 0 0 0 0 0 0 0 0 0 0 0 0 0 0 0 0 0 0 0 0 0 0 0 0 0 0 2097152 1090584704 118491400 2215119960 0 0 0 0 0 0 0 0 0 0 0 0 0 0 0 0 0 0 0 0 0 0 0 0 0 0 0 0 0 0 0 0 0 0 0 0 0 0 0 0 0 0 0 0 0 0 0 0 65536 0 0 1057280 67108864 512 0 0 0 0 0 0 0 0 0 0 0 0 0 0 0 0 0 0 0 0 0 0 0 0 0 0 0 0 0 0 0 0 0 0 0 0 0 0 0 0 0 0 0 2147483648 0 0 536870944 8195 0 64 0 0 0 0 0 0 0 0 0 0 0 0 0 0 0 0 0 0 0 0 0 0 0 0 0 0 0 0 0 0 0 0 0 0 0 0 0 0 0 0 0 0 0 0 0 0 0 0 0 0 0 0 0 0 0 0 0 0 0 0 0 65664 0 134250496 2097873 0 0 0 0 0 0 0 0 0 0 0 0 0 0 0 0 0 0 0 0 0 0 0 0 0 0 0 0 0 0 0 0 0 0 0 0 0 0 0 0 0 0 0 0 0 0 0 0 0 0 0 0 4194304 513 1078010128 268736512 33619984 65536 0 0 0 0 0 0 0 0 0 0 0 0 0 0 0 0 0 0 0 0 0 0 0 0 0 0 0 0 0 0 0 0 0 0 0 0 0 0 0 0 0 0 0 0 0 0 0 0 0 0 0 0 0 0 0 0 0 0 0 0 0 1073741824 65536 0 0 0 0 0 0 0 0 0 0 0 8388608 0 0 0 0 0 0 0 0 0 0 0 0 0 0 0 0 0 0 0 0 0 0 0 0 0 0 0 0 0 0 0 0 0 0 0 0 0 0 0 0 0 0 0 0 0 2147483808 16640 5 1
is_linear=0
shrinkage=0.05


Tree=23
num_leaves=31
num_cat=3
split_feature=5 8 24 22 24 24 13 14 22 10 6 14 12 24 22 14 12 22 24 16 16 16 24 10 22 14 11 24 15 24
split_gain=6979.93 5173.62 3679.45 4017.67 23028.9 3628.58 2674.29 2877.29 2805.93 2276.59 1922.75 1782.16 1630.78 2217.31 4965.89 2207.47 1690.36 2777.85 2186.26 1697.45 1821.73 7134.47 9126.89 1882.92 1480.32 1468.52 1803.82 1400.47 1511.23 1259.18
threshold=0 1 32.586523088699373 3.3554855843394331 9.3589696827747009 38.583266304389454 22.236590115000002 3.5000000000000004 2.9057809227470321 42.824358974358979 2 5.5000000000000009 2020.5000000000002 16.353266441493403 1.4528904613735161 1.5000000000000002 2014.5000000000002 2.9057809227470321 31.977463228064305 5.7239783576583578 2.765078490292503 2.9802467763454676 18.102123665945491 33.551111111111119 2.456543833381394 9.5000000000000018 2022.5000000000002 15.523488466109169 5.4783134920634931 15.253286594575632
decision_type=9 9 2 2 2 2 2 2 2 2 9 2 2 2 2 2 2 2 2 2 2 2 2 2 2 2 2 2 2 2
left_child=9 5 3 10 -5 6 7 8 -2 -1 -3 -6 16 14 15 -14 19 18 -18 20 23 22 -22 -12 -25 26 27 -23 -29 -21
right_child=1 2 -4 4 11 -7 -8 -9 -10 -11 12 -13 13 -15 -16 -17 17 -19 -20 29 21 25 -24 24 -26 -27 -28 28 -30 -31
leaf_value=-0.090075638105244896 0.048529200041261711 -0.11316302110114727 -0.07180173865231905 1.8131174426171044 -0.028715338507696749 0.82366221880912782 -0.13596081049466621 0.67906106838749514 0.70197374701499937 -0.28704347920571799 0.036638496267416783 0.45901274112137885 0.022042186488632601 -0.0031881319614101762 0.82311713239178064 0.57575079046867106 -0.03036371602000661 -0.30287998548463774 0.48719903656414582 -0.25656648589961834 1.519747375920415 -0.08030697230738823 0.18079915267016208 -0.176959033077071 0.14331255195041498 -0.11192767752266566 0.3900837731148516 0.052074720686481848 0.48935686026153902 0.045774777481953306
leaf_weight=402 92 264 1255 21 126 25 49 36 20 231 2622 22 99 146 32 22 719 95 21 87 20 99 35 182 45 96 49 62 29 57
leaf_count=402 92 264 1255 21 126 25 49 36 20 231 2622 22 99 146 32 22 719 95 21 87 20 99 35 182 45 96 49 62 29 57
internal_value=0 0.013333 0.00465726 0.0240517 0.263643 0.245172 0.184204 0.290205 0.165216 -0.159436 0.0155826 0.0437848 0.0233062 0.136197 0.269206 0.122716 0.015359 -0.048352 -0.0156761 0.0310843 0.0385521 0.139901 0.667689 0.0246784 -0.113469 0.0532497 0.119597 0.04984 0.191428 -0.13689
internal_weight=0 6427 6205 4950 169 222 197 148 112 633 4781 148 4517 299 153 121 4218 835 740 3383 3239 390 55 2849 227 335 239 190 91 144
internal_count=7060 6427 6205 4950 169 222 197 148 112 633 4781 148 4517 299 153 121 4218 835 740 3383 3239 390 55 2849 227 335 239 190 91 144
cat_boundaries=0 122 234 335
cat_threshold=0 0 0 0 0 0 0 0 0 0 0 0 0 0 0 0 0 0 0 0 0 0 0 0 0 0 0 0 0 0 0 0 0 0 0 0 0 0 0 0 0 0 0 0 0 0 0 0 0 0 0 0 0 0 0 0 0 0 0 0 0 0 0 134250496 2140817 67108864 0 0 0 0 0 0 0 0 0 0 0 0 0 0 0 0 0 0 0 0 0 0 0 0 0 0 0 0 0 0 0 0 0 0 0 0 0 0 0 0 0 0 0 0 0 0 0 0 0 0 0 4194304 17039361 4194576 471636000 33637376 0 0 0 0 0 0 0 0 0 0 0 0 0 0 0 0 0 0 0 0 0 0 0 0 0 0 0 0 0 0 0 0 0 0 0 0 0 0 0 0 0 0 0 0 0 0 0 0 0 0 0 0 0 134217728 8388608 65537 1073741828 1073742848 0 0 0 0 0 0 0 0 0 0 0 0 0 0 0 0 0 0 0 0 0 0 0 0 0 0 0 0 0 0 0 0 0 0 0 0 0 0 0 0 0 0 0 0 0 0 0 0 0 0 268435456 1152 1026 1024 0 0 0 0 0 0 0 0 0 0 0 0 0 0 0 0 0 0 0 0 0 0 0 0 0 0 0 0 0 0 0 0 0 0 0 0 0 0 0 0 0 0 0 0 0 0 0 0 0 0 0 0 0 0 0 0 0 0 0 0 16 0 0 0 0 0 0 0 0 0 0 0 0 0 0 262144 0 2097152 0 0 0 0 0 0 0 0 0 0 0 0 0 0 0 0 0 0 0 1073741824 2147483648 0 1179904
is_linear=0
shrinkage=0.05


Tree=24
num_leaves=31
num_cat=4
split_feature=6 6 14 5 25 16 22 10 25 11 23 25 10 25 22 11 25 23 22 13 16 22 25 25 25 22 13 22 22 3
split_gain=6805.17 4742.86 3658.06 3304.4 3294.68 7673.69 2634.32 2403.36 2347.33 2288.62 2753.2 2769.21 9218.53 5799.44 2259.48 2233.37 2003.3 1907.6 1908.34 1896.75 1726.91 2183.63 1542.35 1719.27 1351.8 1334.28 1329.87 1323.27 1286.3 1219.16
threshold=0 1 10.500000000000002 2 1817.2437500000001 7.0705816410412616 1.1476442708722401 35.033333333333339 192.02512500000003 2023.5000000000002 1.5000000000000002 31131.051846153849 52.114825581395358 52626.403784761911 1.3424771932604946 2018.5000000000002 63524.422500000008 1.5000000000000002 2.9057809227470321 270.94666666665006 2.953765646497537 2.2952885417444802 186.76500000000004 471.93500000000006 1988.7225000000003 2.2952885417444802 11.450000000000001 1.9123321295482441 2.7730984193296933 3
decision_type=9 9 2 9 2 2 2 2 2 2 2 2 2 2 2 2 2 2 2 2 2 2 2 2 2 2 2 2 2 9
left_child=29 6 3 -3 7 9 -2 -5 14 10 28 24 13 -13 -9 25 -14 27 -19 -10 21 -16 -17 -24 -12 -8 -23 -4 -6 -1
right_child=1 2 17 4 5 -7 15 8 19 -11 11 12 16 -15 20 22 -18 18 -20 -21 -22 26 23 -25 -26 -27 -28 -29 -30 -31
leaf_value=-0.10578996850022426 0.70619498160150318 -0.17028948923655074 -0.35097336652151379 0.028233802307208317 -0.13696035792359285 1.0158279772038046 0.13073993800651459 0.070027134132007479 0.013387552804114031 0.5721310803356271 0.43964388012886052 1.5531622844561934 -0.26417701450309589 0.40032278480745548 -0.86261444817418642 -0.29275779724121093 0.25688860198626151 0.0093102689321489882 -0.25180531681089863 -0.43174426064640281 -0.1674868284480735 -0.55162151634693146 0.53456714179204867 0.051249651169991528 0.062241580837126331 0.6348709258703249 0.011720873618667776 -0.12311642582972544 0.1206673222837219 -0.28514950103876069
leaf_weight=260 27 211 78 3364 175 23 21 71 560 24 25 20 35 24 23 24 39 514 81 25 168 20 23 92 466 35 22 348 67 195
leaf_count=260 27 211 78 3364 175 23 21 71 560 24 25 20 35 24 23 24 39 514 81 25 168 20 23 92 466 35 22 348 67 195
